{"learner":{"attributes":{"scikit_learn":"{\"_estimator_type\": \"classifier\"}"},"feature_names":["length","cpg_ratio","contains_motif","contains_stop","GC_content","motif_count","n_A","n_C","n_T","n_G"],"feature_types":["int","float","int","int","float","int","float","float","float","float"],"gradient_booster":{"model":{"gbtree_model_param":{"num_parallel_tree":"1","num_trees":"100"},"iteration_indptr":[0,1,2,3,4,5,6,7,8,9,10,11,12,13,14,15,16,17,18,19,20,21,22,23,24,25,26,27,28,29,30,31,32,33,34,35,36,37,38,39,40,41,42,43,44,45,46,47,48,49,50,51,52,53,54,55,56,57,58,59,60,61,62,63,64,65,66,67,68,69,70,71,72,73,74,75,76,77,78,79,80,81,82,83,84,85,86,87,88,89,90,91,92,93,94,95,96,97,98,99,100],"tree_info":[0,0,0,0,0,0,0,0,0,0,0,0,0,0,0,0,0,0,0,0,0,0,0,0,0,0,0,0,0,0,0,0,0,0,0,0,0,0,0,0,0,0,0,0,0,0,0,0,0,0,0,0,0,0,0,0,0,0,0,0,0,0,0,0,0,0,0,0,0,0,0,0,0,0,0,0,0,0,0,0,0,0,0,0,0,0,0,0,0,0,0,0,0,0,0,0,0,0,0,0],"trees":[{"base_weights":[3.4266515E-3,-6.944584E-1,1.4264122E-1,-7.471676E-1,4.5876876E-1,2.6290232E-1,-2.3623015E-1,9.952432E-1,-7.8927606E-1,8.1783617E-1,-3.9183083E-1,-4.4820043E-3,3.299096E-1,-1.00713186E-1,-4.6664375E-1,-5.6490485E-2,1.3615472E0,-1.1874667E0,-5.6523186E-1,1.0766138E0,1.2036343E-2,-0E0,-7.126066E-1,-3.279825E-1,2.8762026E-2,4.7535878E-2,3.69744E-1,-2.877073E-1,-4.6688328E-3,-3.6544165E-1,-6.650443E-1,-0E0,1.4045084E0,-0E0,-1.2748522E0,-5.876296E-1,2.3887649E-1,6.154631E-2,-0E0,-4.490746E-2,-0E0,-2.023555E-1,-4.9627416E-2,-2.8635994E-1,6.958919E-2,-5.2260462E-2,1.3411039E-1,4.742692E-2,4.1341323E-1,-1.3294953E-1,-5.7998747E-1,-2.3231936E-1,7.893263E-2,-0E0,-3.851412E-1,-7.771518E-1,-3.1835467E-1,1.6073482E0,-0E0,4.690676E-1,-5.6592625E-1,-1.7784923E-1,-1.3344886E0,-7.081352E-1,-2.033604E-2,5.2380544E-1,-0E0,-0E0,-2.366159E-1,-3.9642867E-1,-0E0,-1.02670416E-1,1.0271268E-1,9.071539E-2,-1.9229235E-1,-0E0,3.9556417E-1,-7.401265E-2,2.4261127E-1,1.8508809E-2,4.3361682E-1,-1.7738399E-1,-0E0,-6.788288E-1,-0E0,-6.018934E-1,8.5371986E-2,-2.240484E-1,2.2857E-1,-2.4249429E-1,-6.096071E-1,-4.9700453E-3,-8.9098984E-1,-3.9953515E-1,-0E0,8.548695E-2,-0E0,4.083997E-2,-0E0,-3.51915E-2,-0E0,3.854374E-2,-6.72818E-1,4.235606E-3,-1.3464334E0,-5.5076855E-1,-8.166934E-1,7.013602E-1,-0E0,-0E0,-2.658699E-1,-0E0,-2.2343256E-2,1.5015483E-1,-2.2858067E-1,-8.4043525E-2,1.4498965E-1,-5.391856E-3,1.6737725E-1,-2.649496E-1,-0E0,-3.4037337E-1,1.178652E-1,5.957493E-1,-0E0,-0E0,-1.535362E-1,-0E0,3.4913668E-1,-1.6558744E-2,4.6211123E-3,1.6712911E-1,4.6996924E-1,-3.3143437E-1,-2.8071482E-2,-1.4206594E-2,1.1283588E-1,-9.277088E-1,-4.1685453E-1,-0E0,-6.55531E-1,-2.5749127E-3,3.0728078E-1,-4.5569018E-1,5.5261012E-2,3.04226E-1,4.649347E-2,-5.6751892E-2,-3.9503837E-1,-0E0,-6.287539E-1,-9.5304215E-1,-0E0,-0E0,-4.830002E-1,-0E0,-8.246044E-1,-1.3579497E0,-0E0,-0E0,-6.0997987E-1,-5.8618426E-1,-4.9334075E-2,5.618106E-2,-0E0,-1.6125696E-2,-0E0,2.8757393E-2,-7.2172865E-2,1.6745448E-3,-1.6251149E-2,1.2559714E-2,-2.5921037E-2,-4.639585E-2,1.9763048E-1,-0E0,3.217466E-1,-2.8647123E-2,-4.2446533E-1,-5.816076E-1,-3.5842814E-4,1.5678932E-1,-6.841737E-3,-0E0,6.407488E-1,1.20318145E-1,-1.43699E-1,1.1248082E-1,-2.5689447E-1,7.4834367E-3,-1.5077682E-1,-0E0,3.8077238E-1,-2.3472568E-2,2.0443848E-1,4.8174515E-1,3.2500617E-2,-0E0,-3.581247E-1,2.5219904E-2,-2.4876137E-1,-0E0,2.3243895E-1,-0E0,-9.8688394E-1,-2.7060118E-2,-0E0,-2.6026077E-3,-7.537326E-1,1.9736607E-2,-0E0,-4.7758588E-1,-0E0,2.921549E-1,-4.5556403E-3,5.077109E-2,4.5295072E-1,-6.762029E-2,9.596526E-3,-1.291202E-1,7.1936834E-4,-6.9006366E-1,-1.1577376E-1,-0E0,-6.449627E-1,-0E0,-9.7874343E-1,-5.270768E-1,-0E0,-0E0,-9.716259E-1,-6.289515E-2,-1.384553E0,-0E0,-6.561697E-1,-0E0,-3.1815898E-2,-1.8179713E-2,-0E0,1.255838E-1,-9.393722E-3,1.3704346E-3,-2.0604175E-1,-0E0,2.2834264E-1,4.0011942E-1,-0E0,6.7863995E-3,-2.4823326E-1,-2.5860945E-2,-0E0,-3.275934E-2,-0E0,1.1010604E-2,-0E0,-0E0,6.8076503E-1,-2.6776376E-1,2.1974005E-1,-0E0,-2.678622E-1,1.2808207E-2,-1.3838446E-3,-1.760414E-2,-0E0,-0E0,-2.710473E-1,4.236188E-1,-0E0,4.8153447E-3,-1.4706428E-1,2.622163E-1,1.0052086E-2,4.9187893E-1,5.00619E-2,5.9741423E-3,-6.5408275E-3,-4.372067E-5,-2.23586E-2,1.0749975E-1,-4.9953326E-3,-3.9054057E-1,-0E0,3.876626E-1,-0E0,-0E0,-1.0365098E0,-4.1296847E-2,-0E0,-0E0,-5.2026534E-1,3.9137837E-1,-0E0,-8.666561E-3,3.4806107E-3,1.8920541E-1,-9.369514E-2,4.9282682E-1,-0E0,3.3967993E-3,-9.050685E-3,-3.6121193E-1,1.0021059E-1,-0E0,-8.495486E-1,-2.9211527E-1,-0E0,-5.518099E-1,-5.4355815E-2,-1.2030139E0,-6.586966E-1,-0E0,-3.1585123E-2,-5.4814633E-2,-0E0,-0E0,-2.5157955E-2,-7.973326E-2,-6.283627E-2,-2.2613144E-2,-4.0730804E-2,1.1798127E-2,-0E0,2.1177798E-3,-1.823708E-2,5.1429705E-3,-7.076194E-3,4.83988E-4,1.3481206E-2,2.5175983E-2,-0E0,-1.8253855E-2,-0E0,3.8434345E-2,-0E0,-0E0,-2.3860564E-2,-0E0,1.8147483E-2,-1.7809696E-2,-0E0,-1.804014E-2,-0E0,2.3743602E-2,-0E0,-1.7971039E-2,-0E0,1.5750006E-2,-4.6063825E-3,1.0999875E-2,-3.8156528E-3,2.8304912E-2,2.107207E-2,9.45379E-3,-1.1720692E-2,1.7620947E-2,-0E0,-0E0,-2.4495289E-2,-0E0,2.5783645E-2,-5.694195E-2,-0E0,-2.9025024E-2,-0E0,-0E0,2.6341874E-2,-0E0,1.9802326E-2,-0E0,-2.3558812E-2,-0E0,2.6666561E-2,-0E0,-2.8283129E-2,-0E0,2.0295626E-2,-4.707676E-2,-0E0,-0E0,-1.8975116E-2,-3.7668828E-2,-1.2718138E-2,-6.5461345E-2,-0E0,-9.7129896E-4,-4.898835E-2],"categories":[],"categories_nodes":[],"categories_segments":[],"categories_sizes":[],"default_left":[0,0,0,0,0,0,0,0,0,0,0,0,0,0,0,0,0,0,0,0,0,0,0,0,0,0,0,0,0,0,0,0,0,0,0,0,0,0,0,0,0,0,0,0,0,0,0,0,0,0,0,0,0,0,0,0,0,0,0,0,0,0,0,0,0,0,0,0,0,0,0,0,0,0,0,0,0,0,0,0,0,0,0,0,0,0,0,0,0,0,0,0,0,0,0,0,0,0,0,0,0,0,0,0,0,0,0,0,0,0,0,0,0,0,0,0,0,0,0,0,0,0,0,0,0,0,0,0,0,0,0,0,0,0,0,0,0,0,0,0,0,0,0,0,0,0,0,0,0,0,0,0,0,0,0,0,0,0,0,0,0,0,0,0,0,0,0,0,0,0,0,0,0,0,0,0,0,0,0,0,0,0,0,0,0,0,0,0,0,0,0,0,0,0,0,0,0,0,0,0,0,0,0,0,0,0,0,0,0,0,0,0,0,0,0,0,0,0,0,0,0,0,0,0,0,0,0,0,0,0,0,0,0,0,0,0,0,0,0,0,0,0,0,0,0,0,0,0,0,0,0,0,0,0,0,0,0,0,0,0,0,0,0,0,0,0,0,0,0,0,0,0,0,0,0,0,0,0,0,0,0,0,0,0,0,0,0,0,0,0,0,0,0,0,0,0,0,0,0,0,0,0,0,0,0,0,0,0,0,0,0,0,0,0,0,0,0,0,0,0,0,0,0,0,0,0,0,0,0,0,0,0,0,0,0,0,0,0,0,0,0,0,0,0,0,0,0,0,0,0,0,0,0,0,0,0,0,0,0,0,0,0,0,0,0,0,0,0,0,0,0,0,0,0,0,0,0,0,0,0,0,0,0,0,0,0,0],"id":0,"left_children":[1,3,5,7,9,11,13,15,17,19,21,23,25,27,29,-1,31,33,35,37,-1,-1,39,41,43,45,47,49,51,53,55,-1,57,59,61,63,65,-1,-1,-1,-1,67,-1,69,71,73,75,77,79,81,83,85,87,-1,89,91,93,95,-1,97,99,101,103,105,-1,107,-1,-1,109,111,-1,113,115,117,119,121,123,125,127,129,131,133,135,137,-1,139,141,143,145,147,149,-1,151,153,-1,-1,-1,-1,-1,-1,-1,-1,155,-1,157,159,161,163,-1,-1,165,-1,-1,167,169,171,173,-1,175,177,-1,179,181,183,-1,185,187,189,191,-1,-1,193,195,197,199,-1,201,203,205,-1,207,-1,209,211,213,215,217,219,221,-1,223,225,-1,-1,227,-1,229,231,-1,-1,233,235,-1,-1,-1,-1,-1,-1,237,-1,-1,239,-1,241,243,-1,245,247,249,251,-1,253,-1,-1,255,257,259,261,263,-1,265,-1,267,269,271,273,275,-1,277,279,281,-1,283,-1,285,-1,-1,-1,287,-1,-1,289,-1,291,293,295,297,299,-1,301,-1,303,305,-1,307,-1,309,311,-1,-1,313,315,317,-1,319,-1,-1,-1,-1,321,-1,-1,323,325,327,329,-1,-1,331,-1,-1,-1,-1,-1,-1,-1,333,335,337,-1,339,-1,-1,-1,-1,-1,341,343,-1,-1,345,347,349,351,353,-1,-1,-1,-1,355,-1,357,-1,359,-1,-1,361,-1,-1,-1,363,365,-1,-1,-1,367,369,371,-1,-1,-1,373,375,-1,377,379,-1,381,-1,383,385,-1,-1,-1,-1,-1,-1,-1,-1,-1,-1,-1,-1,-1,-1,-1,-1,-1,-1,-1,-1,-1,-1,-1,-1,-1,-1,-1,-1,-1,-1,-1,-1,-1,-1,-1,-1,-1,-1,-1,-1,-1,-1,-1,-1,-1,-1,-1,-1,-1,-1,-1,-1,-1,-1,-1,-1,-1,-1,-1,-1,-1,-1,-1,-1,-1,-1,-1,-1,-1,-1,-1,-1,-1,-1,-1,-1],"loss_changes":[2.4779146E3,2.6037805E2,9.712622E2,2.9715356E2,5.8518036E1,2.9272913E2,1.5524118E2,7.372234E1,3.3945483E2,9.447754E0,3.428358E0,3.7059067E1,1.4254333E2,5.5960285E1,2.9095642E1,0E0,4.789261E0,1.5186572E2,4.8976074E1,1.0547356E1,0E0,0E0,3.1064425E0,1.5874741E1,3.5592735E1,1.474519E1,1.5593945E2,4.2747803E1,4.263094E1,9.690033E0,1.4457703E1,0E0,2.2612396E1,2.5135788E1,7.4092285E1,5.0196655E1,6.999654E0,0E0,0E0,0E0,0E0,2.529478E0,0E0,8.744215E0,1.4794144E1,1.5144425E1,3.438559E1,3.3999996E1,7.5890625E1,5.1130705E0,1.9190567E1,7.582431E1,7.105676E1,0E0,3.170575E1,2.6050293E1,6.1040745E0,3.0001526E0,0E0,1.14779825E1,3.1463032E0,3.4655094E1,3.1345215E1,1.4571045E1,0E0,7.0480356E0,0E0,0E0,2.3930235E0,3.8812943E0,0E0,1.2739738E1,1.7970924E1,5.385941E0,3.947075E0,2.5068632E1,2.5819546E1,5.388001E0,1.6639877E1,1.0137909E1,8.647949E1,1.0160837E1,4.020329E0,8.337387E0,0E0,1.143602E1,1.157726E1,3.5608276E1,1.1856644E1,1.7958149E1,6.1524506E0,0E0,1.733374E1,4.797241E0,0E0,0E0,0E0,0E0,0E0,0E0,0E0,0E0,1.0643431E1,0E0,2.807251E1,1.7952911E1,1.3282898E1,1.0507038E1,0E0,0E0,3.3140564E0,0E0,0E0,1.3328762E1,8.238443E0,1.88487E1,1.9755806E1,0E0,7.987848E0,6.211216E0,0E0,8.553202E0,4.378369E0,7.4027634E0,0E0,6.939501E0,1.2738309E1,3.3375943E0,4.285961E0,0E0,0E0,9.734631E0,3.8616577E1,3.3060665E0,5.5140076E0,0E0,2.4811053E0,6.0316696E0,5.6847153E0,0E0,9.8246E0,0E0,4.287652E0,4.315197E0,5.313401E0,2.3143196E1,6.37846E0,2.810264E0,2.5979164E1,0E0,4.109619E0,4.3681335E0,0E0,0E0,2.5333576E0,0E0,6.391979E0,3.0881836E1,0E0,0E0,1.8016678E1,4.000084E0,0E0,0E0,0E0,0E0,0E0,0E0,3.5535693E0,0E0,0E0,5.8769107E0,0E0,5.6822166E0,8.331722E0,0E0,3.3613224E0,5.4062896E0,4.8934402E0,3.5145493E0,0E0,4.913087E0,0E0,0E0,4.9215164E0,8.717001E0,5.1917496E0,3.5588968E0,7.2432175E0,0E0,3.9193E0,0E0,5.4068108E0,2.6920285E0,9.143127E0,3.0905396E1,3.00298E0,0E0,2.715044E0,2.3569694E0,3.5784311E0,0E0,4.64531E0,0E0,3.1136475E0,0E0,0E0,0E0,7.831558E0,0E0,0E0,6.000107E0,0E0,3.2024393E0,2.4667E0,6.545657E0,4.6792603E0,3.1089091E0,0E0,1.4815761E1,0E0,1.4428429E1,5.8709545E0,0E0,2.3481293E0,0E0,7.6158447E0,3.9591084E0,0E0,0E0,4.5748787E0,3.7366028E0,7.5146484E0,0E0,5.1240997E0,0E0,0E0,0E0,0E0,3.5750003E0,0E0,0E0,7.7907333E0,2.7514486E0,6.310341E0,4.8796005E0,0E0,0E0,2.769496E0,0E0,0E0,0E0,0E0,0E0,0E0,0E0,3.083435E0,3.4519262E0,7.1799374E0,0E0,2.4077673E0,0E0,0E0,0E0,0E0,0E0,2.7372398E0,5.6465454E0,0E0,0E0,2.8175004E0,1.2267178E1,5.5494137E0,2.7589844E1,7.0844646E0,0E0,0E0,0E0,0E0,6.4045897E0,0E0,2.817728E0,0E0,2.909584E0,0E0,0E0,4.7861786E0,0E0,0E0,0E0,4.729141E0,2.6875963E0,0E0,0E0,0E0,8.102119E0,6.026066E0,3.677246E0,0E0,0E0,0E0,9.181578E0,3.0338976E0,0E0,4.5343094E0,2.897502E0,0E0,1.1168968E1,0E0,9.515717E0,1.9597488E1,0E0,0E0,0E0,0E0,0E0,0E0,0E0,0E0,0E0,0E0,0E0,0E0,0E0,0E0,0E0,0E0,0E0,0E0,0E0,0E0,0E0,0E0,0E0,0E0,0E0,0E0,0E0,0E0,0E0,0E0,0E0,0E0,0E0,0E0,0E0,0E0,0E0,0E0,0E0,0E0,0E0,0E0,0E0,0E0,0E0,0E0,0E0,0E0,0E0,0E0,0E0,0E0,0E0,0E0,0E0,0E0,0E0,0E0,0E0,0E0,0E0,0E0,0E0,0E0,0E0,0E0,0E0,0E0,0E0,0E0,0E0,0E0,0E0,0E0,0E0,0E0],"parents":[2147483647,0,0,1,1,2,2,3,3,4,4,5,5,6,6,7,7,8,8,9,9,10,10,11,11,12,12,13,13,14,14,16,16,17,17,18,18,19,19,22,22,23,23,24,24,25,25,26,26,27,27,28,28,29,29,30,30,32,32,33,33,34,34,35,35,36,36,41,41,43,43,44,44,45,45,46,46,47,47,48,48,49,49,50,50,51,51,52,52,54,54,55,55,56,56,57,57,59,59,60,60,61,61,62,62,63,63,65,65,68,68,69,69,71,71,72,72,73,73,74,74,75,75,76,76,77,77,78,78,79,79,80,80,81,81,82,82,83,83,85,85,86,86,87,87,88,88,89,89,90,90,92,92,93,93,102,102,104,104,105,105,106,106,107,107,110,110,113,113,114,114,115,115,116,116,118,118,119,119,121,121,122,122,123,123,125,125,126,126,127,127,128,128,131,131,132,132,133,133,134,134,136,136,137,137,138,138,140,140,142,142,143,143,144,144,145,145,146,146,147,147,148,148,150,150,151,151,154,154,156,156,157,157,160,160,161,161,168,168,171,171,173,173,174,174,176,176,177,177,178,178,179,179,181,181,184,184,185,185,186,186,187,187,188,188,190,190,192,192,193,193,194,194,195,195,196,196,198,198,199,199,200,200,202,202,204,204,208,208,211,211,213,213,214,214,215,215,216,216,217,217,219,219,221,221,222,222,224,224,226,226,227,227,230,230,231,231,232,232,234,234,239,239,242,242,243,243,244,244,245,245,248,248,256,256,257,257,258,258,260,260,266,266,267,267,270,270,271,271,272,272,273,273,274,274,279,279,281,281,283,283,286,286,290,290,291,291,295,295,296,296,297,297,301,301,302,302,304,304,305,305,307,307,309,309,310,310],"right_children":[2,4,6,8,10,12,14,16,18,20,22,24,26,28,30,-1,32,34,36,38,-1,-1,40,42,44,46,48,50,52,54,56,-1,58,60,62,64,66,-1,-1,-1,-1,68,-1,70,72,74,76,78,80,82,84,86,88,-1,90,92,94,96,-1,98,100,102,104,106,-1,108,-1,-1,110,112,-1,114,116,118,120,122,124,126,128,130,132,134,136,138,-1,140,142,144,146,148,150,-1,152,154,-1,-1,-1,-1,-1,-1,-1,-1,156,-1,158,160,162,164,-1,-1,166,-1,-1,168,170,172,174,-1,176,178,-1,180,182,184,-1,186,188,190,192,-1,-1,194,196,198,200,-1,202,204,206,-1,208,-1,210,212,214,216,218,220,222,-1,224,226,-1,-1,228,-1,230,232,-1,-1,234,236,-1,-1,-1,-1,-1,-1,238,-1,-1,240,-1,242,244,-1,246,248,250,252,-1,254,-1,-1,256,258,260,262,264,-1,266,-1,268,270,272,274,276,-1,278,280,282,-1,284,-1,286,-1,-1,-1,288,-1,-1,290,-1,292,294,296,298,300,-1,302,-1,304,306,-1,308,-1,310,312,-1,-1,314,316,318,-1,320,-1,-1,-1,-1,322,-1,-1,324,326,328,330,-1,-1,332,-1,-1,-1,-1,-1,-1,-1,334,336,338,-1,340,-1,-1,-1,-1,-1,342,344,-1,-1,346,348,350,352,354,-1,-1,-1,-1,356,-1,358,-1,360,-1,-1,362,-1,-1,-1,364,366,-1,-1,-1,368,370,372,-1,-1,-1,374,376,-1,378,380,-1,382,-1,384,386,-1,-1,-1,-1,-1,-1,-1,-1,-1,-1,-1,-1,-1,-1,-1,-1,-1,-1,-1,-1,-1,-1,-1,-1,-1,-1,-1,-1,-1,-1,-1,-1,-1,-1,-1,-1,-1,-1,-1,-1,-1,-1,-1,-1,-1,-1,-1,-1,-1,-1,-1,-1,-1,-1,-1,-1,-1,-1,-1,-1,-1,-1,-1,-1,-1,-1,-1,-1,-1,-1,-1,-1,-1,-1,-1,-1],"split_conditions":[3.3908045E-1,4.7875354E-1,2.901836E-1,1.8994413E-1,2.76E2,3.7462234E-1,4.2982456E-1,1E0,3.0039525E-1,7.6E1,3.48E2,1.4534883E-1,2.1515892E-1,4.099617E-1,2.962963E-1,-5.6490485E-2,3.7755102E-1,2.45E-1,4.7706422E-1,1.7343174E-1,1.2036343E-2,-0E0,1.732852E-1,4.27E2,1.4450867E-1,2.283105E-1,2.1311475E-1,2.0298508E-1,2.2171946E-1,1.56E2,3.4545454E-1,-0E0,8.5E1,1.09E2,3.9E1,3.271605E-1,1.5865384E-1,6.154631E-2,-0E0,-4.490746E-2,-0E0,2.0535715E-1,-4.9627416E-2,3.625E-1,2.6492536E-1,1.2878788E-1,8.3E1,2.413793E-1,1.5748031E-1,1.49E2,3.4545454E-1,2.4864864E-1,2.2660099E-1,-0E0,5.787189E-1,1.7777778E-1,7.099567E-1,1.1608961E-1,-0E0,1.4035088E-1,1.6949153E-1,2.345679E-1,1E0,1.02E2,-2.033604E-2,2.265625E-1,-0E0,-0E0,2.2697368E-1,2.113402E-1,-0E0,7.8E1,2.613909E-1,4.0151516E-1,2.972973E-1,2.2660099E-1,2.9245284E-1,2.072893E-1,4.6E1,1.2376238E-1,1.7374517E-1,1.9548872E-1,2.7492446E-1,3.090909E-1,-0E0,2.3512748E-1,7.8E1,2.4285714E-1,2.851852E-1,2.6797387E-1,3.6666667E-1,-4.9700453E-3,2.5613078E-1,3.529412E-1,-0E0,8.548695E-2,-0E0,4.083997E-2,-0E0,-3.51915E-2,-0E0,3.854374E-2,1E0,4.235606E-3,1.0096433E0,2.614108E-1,3.43E2,2.73E2,-0E0,-0E0,3.86E2,-0E0,-2.2343256E-2,2.11E2,2.63E2,3.97E2,2.53E2,-5.391856E-3,1.970803E-1,2.94E2,-0E0,2.75E2,3.91E2,1.5508021E-1,-0E0,1.6005291E-1,8.403232E-2,2.3731884E-1,1.9689119E-1,-1.6558744E-2,4.6211123E-3,1.3675214E-1,3.5897437E-1,3.4134614E-1,2.2580644E-1,-1.4206594E-2,2.9885057E-1,3.723404E-1,3.9862543E-1,-0E0,4.4680852E-1,-2.5749127E-3,4.0526316E-1,5.75419E-1,2.4904214E-1,2.204301E-1,2.4827586E-1,5.75419E-1,2.310536E-1,-0E0,1.2142857E-1,1.5057915E-1,-0E0,-0E0,2.673611E-1,-0E0,2.9903537E-1,2.5666666E-1,-0E0,-0E0,2.4210526E-1,2.3870967E-1,-4.9334075E-2,5.618106E-2,-0E0,-1.6125696E-2,-0E0,2.8757393E-2,6.7E1,1.6745448E-3,-1.6251149E-2,1.6951297E-1,-2.5921037E-2,1.4E-1,3.457627E-1,-0E0,3.69E2,2.392638E-1,1.67E2,7.3E1,-3.5842814E-4,2.3479427E-1,-6.841737E-3,-0E0,5.15748E-1,1.4828898E-1,2.37E2,3.58E2,5.241935E-1,7.4834367E-3,6.297812E-2,-0E0,5.8641976E-1,2.6666668E-1,1.8856016E-1,3.586207E-1,4.21E2,-0E0,6.6E1,3.448276E-1,3.6036035E-1,-0E0,5.06E2,-0E0,4.7E1,-2.7060118E-2,-0E0,-2.6026077E-3,5.654952E-1,1.9736607E-2,-0E0,1.7010309E-1,-0E0,6.017442E-1,1.9796954E-1,3.5714287E-1,2.8865978E-1,2.1374045E-1,9.596526E-3,8.3E1,7.1936834E-4,2.2486773E-1,3E2,-0E0,6.813187E-1,-0E0,4.139785E-1,4.52071E-1,-0E0,-0E0,6.4324003E-1,2.58E2,2.8217822E-1,-0E0,8.7516084E-2,-0E0,-3.1815898E-2,-1.8179713E-2,-0E0,1.09E2,-9.393722E-3,1.3704346E-3,2.9661018E-1,1.4873746E-1,2.8965518E-1,2.202166E-1,-0E0,6.7863995E-3,3.6879432E-1,-2.5860945E-2,-0E0,-3.275934E-2,-0E0,1.1010604E-2,-0E0,-0E0,6.109937E-1,1.66E2,5.7E1,-0E0,4.1E2,1.2808207E-2,-1.3838446E-3,-1.760414E-2,-0E0,-0E0,2.92E2,2.74673E-1,-0E0,4.8153447E-3,2.65E2,3.4948096E-1,2.7222222E-1,1.6583984E-1,4.05E2,5.9741423E-3,-6.5408275E-3,-4.372067E-5,-2.23586E-2,3.1764707E-1,-4.9953326E-3,2.9427084E-1,-0E0,1.7114094E-1,-0E0,-0E0,1.959799E-1,-4.1296847E-2,-0E0,-0E0,3.7634408E-1,2.45E2,-0E0,-8.666561E-3,3.4806107E-3,8.5E1,3.95E2,1.72E2,-0E0,3.3967993E-3,-9.050685E-3,5.068493E-1,5.4140127E-1,-0E0,2.673611E-1,2.4166666E-1,-0E0,5.5043226E-1,-5.4355815E-2,3.2851985E-1,4.4875348E-1,-0E0,-3.1585123E-2,-5.4814633E-2,-0E0,-0E0,-2.5157955E-2,-7.973326E-2,-6.283627E-2,-2.2613144E-2,-4.0730804E-2,1.1798127E-2,-0E0,2.1177798E-3,-1.823708E-2,5.1429705E-3,-7.076194E-3,4.83988E-4,1.3481206E-2,2.5175983E-2,-0E0,-1.8253855E-2,-0E0,3.8434345E-2,-0E0,-0E0,-2.3860564E-2,-0E0,1.8147483E-2,-1.7809696E-2,-0E0,-1.804014E-2,-0E0,2.3743602E-2,-0E0,-1.7971039E-2,-0E0,1.5750006E-2,-4.6063825E-3,1.0999875E-2,-3.8156528E-3,2.8304912E-2,2.107207E-2,9.45379E-3,-1.1720692E-2,1.7620947E-2,-0E0,-0E0,-2.4495289E-2,-0E0,2.5783645E-2,-5.694195E-2,-0E0,-2.9025024E-2,-0E0,-0E0,2.6341874E-2,-0E0,1.9802326E-2,-0E0,-2.3558812E-2,-0E0,2.6666561E-2,-0E0,-2.8283129E-2,-0E0,2.0295626E-2,-4.707676E-2,-0E0,-0E0,-1.8975116E-2,-3.7668828E-2,-1.2718138E-2,-6.5461345E-2,-0E0,-9.7129896E-4,-4.898835E-2],"split_indices":[4,8,1,4,0,4,1,2,4,5,0,7,8,4,8,0,6,8,6,9,0,0,7,0,9,7,6,9,8,0,8,0,5,5,5,4,7,0,0,0,0,9,0,4,8,1,5,9,9,5,8,7,6,0,1,9,1,7,0,7,9,4,3,5,0,9,0,0,8,8,0,5,6,4,9,6,6,9,5,9,7,7,6,6,0,6,5,9,6,6,4,0,9,8,0,0,0,0,0,0,0,0,3,0,1,8,0,0,0,0,0,0,0,0,0,0,0,0,8,0,0,0,0,8,0,1,1,7,7,0,0,7,8,4,7,0,8,4,4,0,4,0,1,4,8,9,8,4,8,0,7,7,0,0,7,0,6,6,0,0,6,6,0,0,0,0,0,0,5,0,0,1,0,1,4,0,0,9,5,5,0,1,0,0,4,9,0,0,4,0,1,0,4,9,1,6,0,0,5,6,1,0,0,0,5,0,0,0,4,0,0,9,0,4,6,1,9,9,0,5,0,9,0,0,4,0,4,1,0,0,1,0,4,0,1,0,0,0,0,5,0,0,6,1,8,7,0,0,6,0,0,0,0,0,0,0,4,0,5,0,0,0,0,0,0,0,0,1,0,0,0,8,8,1,0,0,0,0,0,8,0,1,0,7,0,0,7,0,0,0,8,0,0,0,0,5,0,0,0,0,0,4,4,0,7,8,0,4,0,6,4,0,0,0,0,0,0,0,0,0,0,0,0,0,0,0,0,0,0,0,0,0,0,0,0,0,0,0,0,0,0,0,0,0,0,0,0,0,0,0,0,0,0,0,0,0,0,0,0,0,0,0,0,0,0,0,0,0,0,0,0,0,0,0,0,0,0,0,0,0,0,0,0,0,0,0,0],"split_type":[0,0,0,0,0,0,0,0,0,0,0,0,0,0,0,0,0,0,0,0,0,0,0,0,0,0,0,0,0,0,0,0,0,0,0,0,0,0,0,0,0,0,0,0,0,0,0,0,0,0,0,0,0,0,0,0,0,0,0,0,0,0,0,0,0,0,0,0,0,0,0,0,0,0,0,0,0,0,0,0,0,0,0,0,0,0,0,0,0,0,0,0,0,0,0,0,0,0,0,0,0,0,0,0,0,0,0,0,0,0,0,0,0,0,0,0,0,0,0,0,0,0,0,0,0,0,0,0,0,0,0,0,0,0,0,0,0,0,0,0,0,0,0,0,0,0,0,0,0,0,0,0,0,0,0,0,0,0,0,0,0,0,0,0,0,0,0,0,0,0,0,0,0,0,0,0,0,0,0,0,0,0,0,0,0,0,0,0,0,0,0,0,0,0,0,0,0,0,0,0,0,0,0,0,0,0,0,0,0,0,0,0,0,0,0,0,0,0,0,0,0,0,0,0,0,0,0,0,0,0,0,0,0,0,0,0,0,0,0,0,0,0,0,0,0,0,0,0,0,0,0,0,0,0,0,0,0,0,0,0,0,0,0,0,0,0,0,0,0,0,0,0,0,0,0,0,0,0,0,0,0,0,0,0,0,0,0,0,0,0,0,0,0,0,0,0,0,0,0,0,0,0,0,0,0,0,0,0,0,0,0,0,0,0,0,0,0,0,0,0,0,0,0,0,0,0,0,0,0,0,0,0,0,0,0,0,0,0,0,0,0,0,0,0,0,0,0,0,0,0,0,0,0,0,0,0,0,0,0,0,0,0,0,0,0,0,0,0,0,0,0,0,0,0,0,0,0,0,0,0,0,0,0,0,0,0,0],"sum_hessian":[2.554799E4,4.2384985E3,2.1309492E4,4.0602485E3,1.7824994E2,1.6191494E4,5.117998E3,9.074997E1,3.9694985E3,1.3199995E2,4.6249985E1,3.2207488E3,1.2970745E4,3.2454988E3,1.8724994E3,9.999996E0,8.074997E1,1.4147495E3,2.554749E3,8.149997E1,5.049998E1,2.624999E1,1.9999992E1,3.2174988E2,2.898999E3,1.6287494E3,1.1341996E4,1.0722496E3,2.1732493E3,1.2687495E3,6.0374976E2,2.499999E0,7.824997E1,9.399997E1,1.3207495E3,2.495499E3,5.9249977E1,7.499997E1,6.4999976E0,1.7499994E1,2.499999E0,2.797499E2,4.1999985E1,3.0924988E2,2.589749E3,7.1374976E2,9.149997E2,1.3754995E3,9.966496E3,7.1999976E2,3.5224988E2,6.0899976E2,1.5642494E3,6.1249977E1,1.2074995E3,4.3774985E2,1.6599994E2,6.824998E1,9.999996E0,5.524998E1,3.8749985E1,7.524997E1,1.2454995E3,1.5217495E3,9.7374963E2,3.699999E1,2.2249992E1,3.0249989E1,2.4949991E2,2.1649992E2,9.274997E1,3.7824988E2,2.2114993E3,3.2499988E2,3.8874985E2,5.909998E2,3.2399988E2,8.229997E2,5.524998E2,5.0449982E2,9.461997E3,5.664998E2,1.5349994E2,2.984999E2,5.374998E1,2.927499E2,3.1624988E2,4.9924982E2,1.0649996E3,7.6149976E2,4.4599985E2,7.299998E1,3.6474988E2,1.4324995E2,2.2749992E1,6.649998E1,1.7499994E0,3.7749985E1,1.7499994E1,3.374999E1,4.999998E0,2.0499992E1,5.474998E1,4.749998E0,1.2407495E3,6.5399976E2,8.677497E2,3.449999E1,2.499999E0,1.8249994E1,2.3124992E2,1.0749996E1,2.0574992E2,1.0449996E2,2.737499E2,3.7299988E2,1.8384994E3,6.2249977E1,2.627499E2,2.604999E2,1.2824995E2,1.6399994E2,4.2699985E2,2.1499992E2,1.0899996E2,4.0399985E2,4.1899985E2,1.4974994E2,4.0274985E2,6.674998E1,4.3774985E2,1.1629996E3,8.298997E3,2.5174991E2,3.1474988E2,3.1999989E1,1.21499954E2,1.3599995E2,1.6249994E2,1.9499992E1,2.732499E2,1.7474994E2,1.4149995E2,2.882499E2,2.1099992E2,7.2074976E2,3.4424988E2,3.6774988E2,3.9374985E2,1.1249996E1,4.3474985E2,3.3774988E2,2.699999E1,2.499999E1,1.18249954E2,2.999999E0,5.174998E1,1.2349995E3,5.749998E0,7.274998E1,5.812498E2,3.3824988E2,5.294998E2,2.2999992E1,1.1499996E1,2.0474992E2,2.649999E1,4.949998E1,5.499998E1,4.3249985E1,2.3049992E2,2.874999E2,8.549997E1,3.6374988E2,1.4747495E3,1.1524996E2,1.4749995E2,1.25749954E2,1.3474995E2,8.074997E1,8.324997E1,3.9749985E2,2.9499989E1,1.1249996E1,2.0374992E2,2.3324992E2,1.7074994E2,9.549997E1,3.2349988E2,5.399998E1,9.574997E1,3.474999E1,3.6799988E2,1.5524994E2,1.00774963E3,8.063497E3,2.3549991E2,1.0499996E1,2.4124991E2,2.2499992E2,8.974997E1,4.7749985E1,7.374998E1,9.749996E0,1.26249954E2,1.25249954E2,3.724999E1,4.974998E1,2.2349992E2,1.22499954E2,1.8999992E1,2.812499E2,6.9999976E0,6.874998E1,1.4224995E2,2.869999E2,4.3374985E2,1.5674994E2,1.8749994E2,2.3724991E2,1.3049995E2,1.7674994E2,2.1699992E2,1.1749996E1,4.2299985E2,1.2999995E1,3.2474988E2,1.0824996E2,9.999996E0,7.999997E0,4.3749985E1,3.0999989E1,1.2039995E3,3.724999E1,5.439998E2,1.6249994E1,3.2199988E2,3.0499989E1,2.449999E1,2.0774992E2,7.974997E1,2.1599992E2,1.4774995E2,2.1049992E2,1.2642495E3,1.1599996E2,3.1499989E1,5.199998E1,7.374998E1,1.17999954E2,1.6749994E1,7.774997E1,2.999999E0,3.2799988E2,6.949998E1,1.2749995E1,1.9099994E2,3.0749989E1,2.0249992E2,4.999998E1,1.20749954E2,7.774997E1,1.7749994E1,2.4974991E2,7.374998E1,1.3499995E1,8.224997E1,3.2724988E2,4.0749985E1,4.6749985E1,1.0849996E2,7.4474976E2,2.629999E2,7.860247E3,2.0324992E2,1.8849994E2,4.6999985E1,5.8999977E1,1.8224994E2,1.7349994E2,5.149998E1,5.9249977E1,3.0499989E1,5.674998E1,1.6999994E1,8.999997E0,1.1724996E2,2.1424992E2,9.249997E0,2.2249992E1,2.589999E2,5.8749977E1,9.999996E0,7.749997E1,6.474998E1,1.7474994E2,1.1224996E2,3.8549985E2,4.824998E1,3.624999E1,1.20499954E2,1.3499995E2,1.0224996E2,4.0499985E1,1.3624995E2,1.0199996E2,1.1499996E2,3.6124988E2,6.1749977E1,1.7449994E2,1.5024994E2,1.5999994E1,9.224997E1,4.1249985E1,2.499999E0,1.5499994E1,1.5499994E1,6.3099976E2,5.729998E2,2.2174992E2,3.2224988E2,1.3274995E2,7.499997E1,3.424999E1,1.1349996E2,1.3374995E2,7.674997E1,1.8699994E2,1.0772496E3,9.999996E1,1.5999994E1,5.8999977E1,1.4749994E1,1.6799994E2,2.2999992E1,4.4999986E0,2.624999E1,6.3499977E1,1.3899995E2,9.424997E1,2.649999E1,7.274998E1,9.499996E0,3.0949988E2,1.7749994E1,4.2499985E1,6.599998E1,6.8874976E2,5.599998E1,1.0474996E2,1.5824994E2,4.875248E3,2.984999E3,1.5749994E2,4.5749985E1,7.249998E1,1.0099996E2,5.999998E0,5.324998E1,1.0499996E1,4.6249985E1,1.0924996E2,7.999997E0,2.4074991E2,1.8249994E1,1.3499995E1,4.5249985E1,7.624997E1,9.849996E1,7.899997E1,3.324999E1,1.4499995E1,3.7099988E2,4.4749985E1,9.024997E1,7.649997E1,2.574999E1,1.25749954E2,1.0499996E1,1.4999994E1,8.699997E1,2.1424992E2,1.4699995E2,1.6574994E2,8.749997E0,5.499998E1,9.524997E1],"tree_param":{"num_deleted":"0","num_feature":"10","num_nodes":"387","size_leaf_vector":"1"}},{"base_weights":[-6.4142165E-4,-3.8557452E-1,1.3809974E-1,-7.6586246E-1,-1.07949145E-1,2.4304897E-1,-2.2184415E-1,1.0695406E0,-8.491177E-1,-4.660333E-1,-7.643624E-2,-2.3513179E-1,3.161303E-1,-6.887386E-2,-4.3064827E-1,-5.0410546E-2,1.3214507E0,2.1185814E-1,-9.02646E-1,-2.5005577E-2,-0E0,-1.5273246E-1,8.980289E-2,-6.260699E-1,-1.3100508E-1,4.012349E-2,3.62502E-1,-3.5836172E-1,-3.615331E-2,-4.0097567E-1,-8.9722836E-1,1.4364061E0,-0E0,7.730791E-1,-2.3131947E-1,-9.4442064E-1,4.6478218E-1,-5.4783076E-2,-2.0446387E-1,-2.9334778E-1,1.3549264E-1,-7.225885E-1,1.7141919E-1,-3.893469E-1,-0E0,-8.352212E-2,1.6048639E-1,1.3349564E-1,3.996863E-1,-3.98582E-1,-0E0,1.589E-2,-2.944492E-1,-3.1441385E-1,-5.9235257E-1,-0E0,-9.264812E-1,1.5275675E0,-0E0,8.670011E-1,-0E0,-0E0,-6.9370574E-1,-9.5829165E-1,7.954323E-1,7.8410053E-1,-0E0,5.088947E-3,-1.8955326E-2,-2.1468362E-1,1.24852685E-2,-0E0,-2.0584589E-2,1.9236583E-1,-1.1241926E-1,-1.0071082E0,-3.6978373E-1,3.1327926E-2,-1.1547926E-2,-4.2730552E-1,-0E0,-1.0070143E-3,1.4875768E-2,3.183249E-2,-3.1087938E-1,-6.819238E-2,3.2656798E-1,3.078602E-1,2.6877338E-2,1.5741813E-1,4.4445944E-1,-7.346575E-1,-1.2232576E-2,-2.2150344E-1,1.2281639E-1,-3.7385833E-1,-0E0,-3.883708E-1,-3.8886655E-2,-6.1635834E-1,-0E0,-0E0,-5.6636747E-2,-0E0,1.5671346E0,5.0916515E-2,-0E0,-4.21478E-2,-0E0,-1.2756066E0,-7.370723E-1,9.970907E-1,-0E0,-0E0,4.338216E-2,8.935554E-2,-1.3465042E-1,-1.2095515E-1,-7.9110336E-1,-0E0,2.3310395E-1,-3.013288E-1,-0E0,-0E0,-5.3238813E-2,-4.2902878E-1,-0E0,-0E0,-4.388788E-1,2.1632746E-1,-1.08752646E-1,-1.5060487E-1,-5.6764686E-1,-2.9573855E-1,-0E0,3.506548E-1,-0E0,4.8605632E-4,3.5966268E-1,-1.1202154E-1,2.3366958E-1,-0E0,2.6706237E-1,5.011234E-1,3.5302278E-1,-4.0354818E-2,-0E0,1.8857593E-2,-5.486092E-1,-1.1722027E-1,2.0050728E-1,-2.0451987E-2,-0E0,-6.5089697E-1,-2.0459907E-1,1.2768684E-1,-2.2907716E-1,-3.9294803E-1,-8.236319E-1,-0E0,8.338855E-2,3.544063E-2,-1.2987524E0,-5.887908E-1,-9.14697E-1,5.8906097E-2,-0E0,-0E0,1.4490826E-1,1.9685388E-2,-4.5718515E-1,-4.806583E-2,-3.805244E-1,-1.0522228E0,-2.828638E-1,2.7294573E-1,-2.6112357E-3,-0E0,-4.420466E-1,-0E0,-2.5138836E-2,-1.4418673E-2,-6.5476733E-1,-0E0,2.560164E-1,1.3794844E-1,-1.8668526E-1,-0E0,-3.0605337E-1,-0E0,-3.2813065E-2,-2.9534917E-2,-0E0,-2.2791829E-2,1.1103671E-1,-0E0,4.027336E-1,-0E0,1.9366404E-2,2.0788337E-1,-1.7490552E-1,-1.1116479E-3,1.7199272E-2,-7.411142E-2,5.5209897E-2,2.284313E-3,3.1413808E-1,4.5082584E-1,6.188943E-1,1.2118384E-1,3.9389494E-1,-1.2281149E-1,2.523348E-1,-5.903288E-1,-0E0,-3.739534E-1,1.780713E-1,3.894373E-2,3.6047643E-1,-7.7151287E-1,3.0749405E-3,-8.216453E-2,-5.0625163E-1,-3.341307E-2,3.1679937E-1,-0E0,-2.1194004E-2,-4.317285E-1,-0E0,-0E0,-8.6525923E-1,-0E0,-6.8662405E-2,-0E0,-3.2881264E-2,-5.2624166E-2,-5.784047E-1,7.17748E-4,1.5607292E-2,-4.8387633E-4,2.4473181E-1,-2.6857594E-2,-0E0,2.815313E-2,-1.2622143E-1,1.4387605E-3,-6.502149E-1,-0E0,-1.0815868E0,-4.099284E-1,-0E0,-0E0,2.9235533E-1,-5.506277E-1,-0E0,-6.803033E-1,-0E0,1.4964812E-2,-0E0,2.1465965E-2,-0E0,-0E0,-3.1313455E-1,-4.3232372E-1,-0E0,-0E0,4.2315567E-1,-0E0,2.2328058E-2,2.8578052E-1,-0E0,-2.2485559E-1,2.0004618E-3,5.1357516E-4,-8.970601E-3,-4.623467E-3,1.19094856E-1,4.5739277E-4,3.7305462E-1,4.647917E-1,2.5845033E-1,3.3704225E-2,-0E0,-0E0,2.519999E-1,2.0313624E-1,4.4113296E-1,-3.0463296E-1,-0E0,-0E0,1.745269E-2,-3.3153847E-3,-7.3140734E-1,-5.0664574E-1,-0E0,-0E0,3.3392376E-1,-6.1887093E-2,1.1972748E-1,1.6850749E-1,5.133267E-1,-7.871194E-2,-8.757056E-1,-3.240573E-1,2.1280387E-2,-7.093317E-1,-0E0,-0E0,-1.9701961E-2,5.027096E-1,-0E0,-0E0,-4.4882953E-1,-4.7093052E-2,-0E0,2.309123E-2,-7.179324E-3,-0E0,-3.1773973E-2,-0E0,1.9331127E-2,-1.2143572E-2,3.8224903E-3,-2.0337284E-2,-3.1760142E-3,-1.3548482E-2,-4.7157172E-2,-0E0,-5.8247834E-2,-0E0,-2.5288858E-2,-0E0,1.6216964E-2,-0E0,-3.2607105E-2,-0E0,-3.7818342E-2,-0E0,-2.0330414E-2,-0E0,-2.4895476E-2,-0E0,2.6308415E-2,-0E0,1.8761532E-2,-1.3809138E-2,-0E0,-5.7636E-4,1.1696924E-2,-0E0,2.0364286E-2,1.9968977E-2,2.7108885E-2,1.9646E-2,2.956941E-3,6.370893E-3,-7.8998245E-3,-0E0,2.0341782E-2,-0E0,1.2555178E-2,2.3852171E-2,-0E0,-2.2238558E-2,-0E0,-3.9568167E-2,-0E0,-3.468005E-2,-0E0,-0E0,2.407388E-2,-8.435508E-3,5.6388574E-3,-2.7324846E-3,9.857612E-3,1.1281424E-2,-0E0,-0E0,2.8801126E-2,-2.5373325E-2,-0E0,-0E0,-4.7846135E-2,-0E0,-2.2343412E-2,9.6459435E-3,-4.068881E-3,-4.0790755E-2,-0E0,3.1159328E-2,-0E0,-0E0,-2.5124948E-2],"categories":[],"categories_nodes":[],"categories_segments":[],"categories_sizes":[],"default_left":[0,0,0,0,0,0,0,0,0,0,0,0,0,0,0,0,0,0,0,0,0,0,0,0,0,0,0,0,0,0,0,0,0,0,0,0,0,0,0,0,0,0,0,0,0,0,0,0,0,0,0,0,0,0,0,0,0,0,0,0,0,0,0,0,0,0,0,0,0,0,0,0,0,0,0,0,0,0,0,0,0,0,0,0,0,0,0,0,0,0,0,0,0,0,0,0,0,0,0,0,0,0,0,0,0,0,0,0,0,0,0,0,0,0,0,0,0,0,0,0,0,0,0,0,0,0,0,0,0,0,0,0,0,0,0,0,0,0,0,0,0,0,0,0,0,0,0,0,0,0,0,0,0,0,0,0,0,0,0,0,0,0,0,0,0,0,0,0,0,0,0,0,0,0,0,0,0,0,0,0,0,0,0,0,0,0,0,0,0,0,0,0,0,0,0,0,0,0,0,0,0,0,0,0,0,0,0,0,0,0,0,0,0,0,0,0,0,0,0,0,0,0,0,0,0,0,0,0,0,0,0,0,0,0,0,0,0,0,0,0,0,0,0,0,0,0,0,0,0,0,0,0,0,0,0,0,0,0,0,0,0,0,0,0,0,0,0,0,0,0,0,0,0,0,0,0,0,0,0,0,0,0,0,0,0,0,0,0,0,0,0,0,0,0,0,0,0,0,0,0,0,0,0,0,0,0,0,0,0,0,0,0,0,0,0,0,0,0,0,0,0,0,0,0,0,0,0,0,0,0,0,0,0,0,0,0,0,0,0,0,0,0,0,0,0,0,0,0,0,0,0,0,0,0,0,0,0,0,0,0,0,0,0,0,0,0,0,0,0,0,0,0,0,0,0,0,0,0,0,0,0,0,0,0,0,0,0,0,0,0,0,0,0],"id":1,"left_children":[1,3,5,7,9,11,13,15,17,19,21,23,25,27,29,-1,31,33,35,-1,-1,37,39,41,43,45,47,49,51,53,55,57,-1,59,61,63,65,67,69,71,73,75,77,79,81,83,85,87,89,91,-1,93,95,97,99,-1,101,103,-1,105,-1,-1,107,109,111,113,-1,115,-1,117,-1,-1,-1,119,121,123,125,-1,-1,127,-1,-1,-1,129,131,133,135,137,139,141,143,145,-1,147,149,151,-1,153,155,157,-1,-1,-1,-1,159,-1,-1,-1,-1,161,163,165,-1,-1,-1,167,169,171,173,-1,175,177,-1,-1,-1,179,-1,-1,181,183,185,187,189,191,193,195,-1,-1,197,199,201,203,205,207,209,-1,-1,211,213,215,217,-1,-1,219,221,223,225,227,229,-1,-1,-1,231,233,235,-1,-1,-1,237,239,241,243,245,247,249,251,-1,-1,253,-1,-1,-1,255,-1,257,259,261,-1,263,-1,-1,-1,-1,-1,265,-1,267,-1,-1,269,271,-1,-1,273,275,-1,277,279,281,283,285,287,289,291,-1,293,295,297,299,301,-1,303,305,307,309,-1,-1,311,-1,-1,313,-1,-1,315,-1,-1,317,-1,-1,-1,319,-1,-1,321,323,-1,325,-1,327,329,-1,-1,331,333,-1,335,-1,-1,-1,-1,-1,-1,337,339,-1,-1,341,-1,-1,343,-1,345,-1,-1,-1,-1,347,-1,349,351,353,-1,-1,355,357,359,361,363,-1,-1,-1,-1,365,367,-1,-1,369,371,373,375,377,379,381,383,385,387,-1,-1,-1,389,-1,-1,391,-1,-1,-1,-1,-1,-1,-1,-1,-1,-1,-1,-1,-1,-1,-1,-1,-1,-1,-1,-1,-1,-1,-1,-1,-1,-1,-1,-1,-1,-1,-1,-1,-1,-1,-1,-1,-1,-1,-1,-1,-1,-1,-1,-1,-1,-1,-1,-1,-1,-1,-1,-1,-1,-1,-1,-1,-1,-1,-1,-1,-1,-1,-1,-1,-1,-1,-1,-1,-1,-1,-1,-1,-1,-1,-1,-1,-1,-1,-1,-1],"loss_changes":[1.3656241E3,7.087281E2,7.086493E2,4.3448682E2,3.9985596E1,5.0875806E2,1.3065091E2,6.572322E1,1.6077698E2,3.4045486E0,4.663902E1,7.17254E1,1.583446E2,2.0097046E1,1.3582336E1,0E0,1.9096985E1,3.5566216E1,1.5318164E2,0E0,0E0,1.0706932E1,1.8232826E1,3.4258926E1,5.346067E1,2.8046595E1,8.749878E1,5.6442127E0,3.226734E1,2.02518E1,2.777153E0,9.721268E0,0E0,5.802292E0,1.159395E1,6.3285645E1,1.529719E1,2.0061491E1,7.111702E0,3.2342472E0,1.4939486E1,2.4041504E1,8.861154E0,1.0363365E1,6.7359667E0,2.5236286E1,3.8810356E1,2.5901247E1,9.540234E1,3.9783173E0,0E0,4.5798885E1,9.166233E0,2.0670235E1,9.5021515E0,0E0,5.7319717E0,4.286484E0,0E0,3.7320824E0,0E0,0E0,4.087802E0,1.5975244E2,4.062272E0,2.4209404E0,0E0,8.560367E0,0E0,7.8006454E1,0E0,0E0,0E0,7.1983585E0,3.0470138E0,4.338394E0,4.5069237E0,0E0,0E0,4.4145584E0,0E0,0E0,0E0,1.5387007E1,7.2563896E0,7.9761844E0,3.9366226E0,5.6191177E0,2.9273365E1,2.6946781E1,3.3251343E1,2.4153671E0,0E0,4.7245407E1,2.4724777E1,3.0034409E0,0E0,3.689366E1,9.541968E0,1.2063416E1,0E0,0E0,0E0,0E0,3.5804596E0,0E0,0E0,0E0,0E0,5.2017944E1,2.6936707E1,2.4817753E0,0E0,0E0,0E0,3.604807E0,1.5928187E1,2.2523373E1,1.6710388E1,0E0,9.831219E0,3.5919366E0,0E0,0E0,0E0,5.0119553E0,0E0,0E0,9.488045E0,3.8216028E0,6.056778E0,6.9591546E0,4.0188713E0,1.1869994E1,1.1316484E1,6.7786407E0,0E0,0E0,3.3011703E0,1.1165216E1,1.2808922E1,2.5019631E0,6.4568596E0,1.9228027E1,2.4557129E1,0E0,0E0,1.1061644E1,7.059456E0,2.366624E1,2.2605453E1,0E0,0E0,3.6265198E1,1.5723389E1,6.0790653E0,4.0081606E0,3.4606552E0,4.2897186E0,0E0,0E0,0E0,2.1079102E1,2.2298187E1,7.813904E0,0E0,0E0,0E0,4.89027E0,2.8875248E0,3.6963043E0,7.3280582E0,3.548047E1,5.04805E0,4.2638474E0,3.592762E0,0E0,0E0,3.0576458E0,0E0,0E0,0E0,4.2198715E0,0E0,3.3097324E0,2.781021E0,3.5921297E0,0E0,6.681885E0,0E0,0E0,0E0,0E0,0E0,1.0064369E1,0E0,2.339981E0,0E0,0E0,2.2998815E0,6.776698E0,0E0,0E0,3.7301784E0,2.926945E0,0E0,9.607628E0,3.1420898E0,2.2731873E1,8.144403E0,1.7701874E1,3.3046472E0,4.809223E0,1.0847267E1,0E0,1.149152E1,3.2397504E0,4.7339487E0,8.435478E0,1.4951889E1,0E0,1.2814296E1,1.3810711E1,2.7840014E0,5.474369E0,0E0,0E0,2.6049042E0,0E0,0E0,6.751053E0,0E0,0E0,3.970634E0,0E0,0E0,5.2700043E0,0E0,0E0,0E0,3.1668022E0,0E0,0E0,4.70266E0,6.594632E0,0E0,8.182236E0,0E0,2.3229523E0,2.800869E0,0E0,0E0,3.3793983E0,2.5654926E0,0E0,2.232811E0,0E0,0E0,0E0,0E0,0E0,0E0,3.1646662E0,3.1640453E0,0E0,0E0,4.804245E0,0E0,0E0,2.326971E0,0E0,5.6614227E0,0E0,0E0,0E0,0E0,5.016146E0,0E0,5.450638E0,6.6344604E0,2.9590626E0,0E0,0E0,4.6377835E0,7.771943E0,4.990471E0,1.2532288E1,3.8469095E0,0E0,0E0,0E0,0E0,4.806694E0,1.0505917E1,0E0,0E0,3.0226035E0,3.67337E0,5.121764E0,3.3827581E0,6.118351E0,4.2585073E0,4.7191772E0,7.4793806E0,5.247042E0,4.5216255E0,0E0,0E0,0E0,2.5965624E0,0E0,0E0,3.1329193E0,0E0,0E0,0E0,0E0,0E0,0E0,0E0,0E0,0E0,0E0,0E0,0E0,0E0,0E0,0E0,0E0,0E0,0E0,0E0,0E0,0E0,0E0,0E0,0E0,0E0,0E0,0E0,0E0,0E0,0E0,0E0,0E0,0E0,0E0,0E0,0E0,0E0,0E0,0E0,0E0,0E0,0E0,0E0,0E0,0E0,0E0,0E0,0E0,0E0,0E0,0E0,0E0,0E0,0E0,0E0,0E0,0E0,0E0,0E0,0E0,0E0,0E0,0E0,0E0,0E0,0E0,0E0,0E0,0E0,0E0,0E0,0E0,0E0,0E0,0E0,0E0,0E0,0E0,0E0,0E0],"parents":[2147483647,0,0,1,1,2,2,3,3,4,4,5,5,6,6,7,7,8,8,9,9,10,10,11,11,12,12,13,13,14,14,16,16,17,17,18,18,21,21,22,22,23,23,24,24,25,25,26,26,27,27,28,28,29,29,30,30,31,31,33,33,34,34,35,35,36,36,37,37,38,38,39,39,40,40,41,41,42,42,43,43,44,44,45,45,46,46,47,47,48,48,49,49,51,51,52,52,53,53,54,54,56,56,57,57,59,59,62,62,63,63,64,64,65,65,67,67,69,69,73,73,74,74,75,75,76,76,79,79,83,83,84,84,85,85,86,86,87,87,88,88,89,89,90,90,91,91,93,93,94,94,95,95,97,97,98,98,99,99,104,104,109,109,110,110,111,111,115,115,116,116,117,117,118,118,120,120,121,121,125,125,128,128,129,129,130,130,131,131,132,132,133,133,134,134,135,135,138,138,139,139,140,140,141,141,142,142,143,143,144,144,147,147,148,148,149,149,150,150,153,153,154,154,155,155,156,156,157,157,158,158,162,162,163,163,164,164,168,168,169,169,170,170,171,171,172,172,173,173,174,174,175,175,178,178,182,182,184,184,185,185,186,186,188,188,194,194,196,196,199,199,200,200,203,203,204,204,206,206,207,207,208,208,209,209,210,210,211,211,212,212,213,213,215,215,216,216,217,217,218,218,219,219,221,221,222,222,223,223,224,224,227,227,230,230,233,233,236,236,240,240,243,243,244,244,246,246,248,248,249,249,252,252,253,253,255,255,262,262,263,263,266,266,269,269,271,271,276,276,278,278,279,279,280,280,283,283,284,284,285,285,286,286,287,287,292,292,293,293,296,296,297,297,298,298,299,299,300,300,301,301,302,302,303,303,304,304,305,305,309,309,312,312],"right_children":[2,4,6,8,10,12,14,16,18,20,22,24,26,28,30,-1,32,34,36,-1,-1,38,40,42,44,46,48,50,52,54,56,58,-1,60,62,64,66,68,70,72,74,76,78,80,82,84,86,88,90,92,-1,94,96,98,100,-1,102,104,-1,106,-1,-1,108,110,112,114,-1,116,-1,118,-1,-1,-1,120,122,124,126,-1,-1,128,-1,-1,-1,130,132,134,136,138,140,142,144,146,-1,148,150,152,-1,154,156,158,-1,-1,-1,-1,160,-1,-1,-1,-1,162,164,166,-1,-1,-1,168,170,172,174,-1,176,178,-1,-1,-1,180,-1,-1,182,184,186,188,190,192,194,196,-1,-1,198,200,202,204,206,208,210,-1,-1,212,214,216,218,-1,-1,220,222,224,226,228,230,-1,-1,-1,232,234,236,-1,-1,-1,238,240,242,244,246,248,250,252,-1,-1,254,-1,-1,-1,256,-1,258,260,262,-1,264,-1,-1,-1,-1,-1,266,-1,268,-1,-1,270,272,-1,-1,274,276,-1,278,280,282,284,286,288,290,292,-1,294,296,298,300,302,-1,304,306,308,310,-1,-1,312,-1,-1,314,-1,-1,316,-1,-1,318,-1,-1,-1,320,-1,-1,322,324,-1,326,-1,328,330,-1,-1,332,334,-1,336,-1,-1,-1,-1,-1,-1,338,340,-1,-1,342,-1,-1,344,-1,346,-1,-1,-1,-1,348,-1,350,352,354,-1,-1,356,358,360,362,364,-1,-1,-1,-1,366,368,-1,-1,370,372,374,376,378,380,382,384,386,388,-1,-1,-1,390,-1,-1,392,-1,-1,-1,-1,-1,-1,-1,-1,-1,-1,-1,-1,-1,-1,-1,-1,-1,-1,-1,-1,-1,-1,-1,-1,-1,-1,-1,-1,-1,-1,-1,-1,-1,-1,-1,-1,-1,-1,-1,-1,-1,-1,-1,-1,-1,-1,-1,-1,-1,-1,-1,-1,-1,-1,-1,-1,-1,-1,-1,-1,-1,-1,-1,-1,-1,-1,-1,-1,-1,-1,-1,-1,-1,-1,-1,-1,-1,-1,-1,-1],"split_conditions":[1.7374517E-1,3.2970026E-1,3.0246913E-1,1.8994413E-1,1.2587413E-1,1.5675676E-1,4.2443064E-1,1.2941177E-1,2.2594142E-1,6.217494E-1,2.3202614E-1,1.2376238E-1,2.2065727E-1,1.5675676E-1,6.813187E-1,-5.0410546E-2,3.4E2,2.41E2,5E-1,-2.5005577E-2,-0E0,3.043478E-1,2.0178041E-1,4.5454547E-1,3.4246576E-1,2.3469388E-1,2.1904762E-1,4.4E-1,3.1764707E-1,3.018868E-1,1.34E2,9.7E1,-0E0,1.08E2,1.4234875E-1,1.0096433E0,2.62E2,2.7864292E-1,4.7875354E-1,2.14E2,3.139535E-1,3.3802816E-1,2.3934427E-1,4.4E-1,4.496124E-1,3.35E2,2.4299066E-1,1.2207792E-1,3.8E-1,3.3333334E-1,-0E0,2.2374429E-1,1.36E2,5.654952E-1,1.0096433E0,-0E0,5.636071E-1,3.7755102E-1,-0E0,2.2065727E-1,-0E0,-0E0,1.7121588E-1,2.9347825E-1,1.4035088E-1,1.0227273E-1,-0E0,3.8181818E-1,-1.8955326E-2,3.3680555E-1,1.24852685E-2,-0E0,-2.0584589E-2,1.3921113E-1,2.4675325E-1,1.954023E-1,3.3827892E-1,3.1327926E-2,-1.1547926E-2,1.7110266E-1,-0E0,-1.0070143E-3,1.4875768E-2,1.277027E-1,3.7572256E-1,1.4113873E-1,2.7864292E-1,4.1964287E-1,2.413793E-1,1.7010309E-1,1.6583984E-1,2.1639344E-1,-1.2232576E-2,2.8115016E-1,2.2865854E-1,2.517321E-1,-0E0,2.3295455E-1,5.4996043E-1,1.992032E-1,-0E0,-0E0,-5.6636747E-2,-0E0,3.7442923E-1,5.0916515E-2,-0E0,-4.21478E-2,-0E0,1E0,3.31E2,3.36E2,-0E0,-0E0,4.338216E-2,8.1E1,3.33E2,3.948718E-1,3.4076434E-1,-0E0,4.73E2,3.837838E-1,-0E0,-0E0,-5.3238813E-2,1.56E2,-0E0,-0E0,3.52E2,3.6842105E-1,1.82E2,1.5776241E-1,1.7894737E-1,7E1,2.26E2,4.5E1,-0E0,4.8605632E-4,2.2374429E-1,1.94E2,4.6E1,3.33E2,2.8346458E-1,1.16E2,1.9262294E-1,-4.0354818E-2,-0E0,7.6E1,2.7828747E-1,2.5613078E-1,4.4394618E-1,-2.0451987E-2,-0E0,2.7828747E-1,2.6506025E-1,4.6567583E-1,6.9E1,2.723112E-1,3.1E1,-0E0,8.338855E-2,3.544063E-2,2.9E1,2.3870967E-1,3.2156864E-1,5.8906097E-2,-0E0,-0E0,3.723404E-1,4.2647058E-1,2.23E2,3.046875E-1,2.69E2,1.3265306E-1,2.1176471E-1,2.244898E-1,-2.6112357E-3,-0E0,4.15E2,-0E0,-2.5138836E-2,-1.4418673E-2,1.5609756E-1,-0E0,5.5043226E-1,2.0274915E-1,2.611111E-1,-0E0,1.37E2,-0E0,-3.2813065E-2,-2.9534917E-2,-0E0,-2.2791829E-2,9.1E1,-0E0,2.3809524E-1,-0E0,1.9366404E-2,2.364532E-1,3.2333332E-1,-1.1116479E-3,1.7199272E-2,3.046875E-1,2.8115016E-1,2.284313E-3,2.55E2,3.309091E-1,3.4591195E-1,3.47E2,2.4464832E-1,4.7E1,5.263158E-1,2.46E2,-0E0,1.08E2,1.9459459E-1,1.9548872E-1,2.3595506E-1,2.2222222E-1,3.0749405E-3,2.0562771E-1,2.254902E-1,3.14578E-1,2.0408164E-1,-0E0,-2.1194004E-2,1.39E2,-0E0,-0E0,2.621951E-1,-0E0,-6.8662405E-2,1.87E2,-3.2881264E-2,-5.2624166E-2,1.5E-1,7.17748E-4,1.5607292E-2,-4.8387633E-4,1.7010309E-1,-2.6857594E-2,-0E0,1.4628297E-1,1.4341085E-1,1.4387605E-3,1.9537275E-1,-0E0,3.3453238E-1,1.7064847E-1,-0E0,-0E0,1.7E2,2.3247233E-1,-0E0,1.764706E-1,-0E0,1.4964812E-2,-0E0,2.1465965E-2,-0E0,-0E0,2.5941423E-1,1.8233618E-1,-0E0,-0E0,3E2,-0E0,2.2328058E-2,1.6896552E-1,-0E0,1.51E2,2.0004618E-3,5.1357516E-4,-8.970601E-3,-4.623467E-3,1.853786E-1,4.5739277E-4,1.7426273E-1,2.647059E-1,2.020202E-1,3.3704225E-2,-0E0,2.948718E-1,2.1582733E-1,4.245614E-1,3.4108528E-1,3.4285715E-1,-0E0,-0E0,1.745269E-2,-3.3153847E-3,3.1491712E-1,3.108614E-1,-0E0,-0E0,5.8E1,4.1964287E-1,6.4E1,4.97E2,3.3E1,1.7883211E-1,1.7E2,2.761905E-1,4.628821E-1,2.631579E-1,-0E0,-0E0,-1.9701961E-2,4E2,-0E0,-0E0,1.7793594E-1,-4.7093052E-2,-0E0,2.309123E-2,-7.179324E-3,-0E0,-3.1773973E-2,-0E0,1.9331127E-2,-1.2143572E-2,3.8224903E-3,-2.0337284E-2,-3.1760142E-3,-1.3548482E-2,-4.7157172E-2,-0E0,-5.8247834E-2,-0E0,-2.5288858E-2,-0E0,1.6216964E-2,-0E0,-3.2607105E-2,-0E0,-3.7818342E-2,-0E0,-2.0330414E-2,-0E0,-2.4895476E-2,-0E0,2.6308415E-2,-0E0,1.8761532E-2,-1.3809138E-2,-0E0,-5.7636E-4,1.1696924E-2,-0E0,2.0364286E-2,1.9968977E-2,2.7108885E-2,1.9646E-2,2.956941E-3,6.370893E-3,-7.8998245E-3,-0E0,2.0341782E-2,-0E0,1.2555178E-2,2.3852171E-2,-0E0,-2.2238558E-2,-0E0,-3.9568167E-2,-0E0,-3.468005E-2,-0E0,-0E0,2.407388E-2,-8.435508E-3,5.6388574E-3,-2.7324846E-3,9.857612E-3,1.1281424E-2,-0E0,-0E0,2.8801126E-2,-2.5373325E-2,-0E0,-0E0,-4.7846135E-2,-0E0,-2.2343412E-2,9.6459435E-3,-4.068881E-3,-4.0790755E-2,-0E0,3.1159328E-2,-0E0,-0E0,-2.5124948E-2],"split_indices":[7,4,1,4,7,9,1,8,8,4,9,9,8,9,4,0,0,0,8,0,0,8,8,8,4,7,6,8,8,8,0,5,0,5,7,1,0,1,8,0,1,4,7,8,4,0,6,1,4,4,0,8,5,4,1,0,1,6,0,8,0,0,9,4,7,7,0,6,0,1,0,0,0,7,9,8,6,0,0,8,0,0,0,1,6,1,1,4,9,9,1,7,0,6,6,9,0,8,1,9,0,0,0,0,8,0,0,0,0,3,0,0,0,0,0,5,0,8,8,0,0,4,0,0,0,0,0,0,0,4,0,1,7,5,0,5,0,0,8,0,5,0,8,5,7,0,0,5,7,9,4,0,0,7,7,1,5,7,5,0,0,0,5,6,4,0,0,0,4,6,5,6,0,7,9,6,0,0,0,0,0,0,9,0,4,7,9,0,5,0,0,0,0,0,5,0,7,0,0,9,7,0,0,6,6,0,0,6,6,0,6,5,4,0,0,5,6,7,7,9,0,7,6,7,6,0,0,0,0,0,9,0,0,0,0,0,9,0,0,0,9,0,0,7,7,0,9,0,4,9,0,0,0,6,0,7,0,0,0,0,0,0,6,7,0,0,0,0,0,9,0,5,0,0,0,0,7,0,7,6,9,0,0,6,9,4,6,9,0,0,0,0,9,7,0,0,5,4,5,0,5,9,0,6,4,9,0,0,0,0,0,0,7,0,0,0,0,0,0,0,0,0,0,0,0,0,0,0,0,0,0,0,0,0,0,0,0,0,0,0,0,0,0,0,0,0,0,0,0,0,0,0,0,0,0,0,0,0,0,0,0,0,0,0,0,0,0,0,0,0,0,0,0,0,0,0,0,0,0,0,0,0,0,0,0,0,0,0,0,0,0,0,0],"split_type":[0,0,0,0,0,0,0,0,0,0,0,0,0,0,0,0,0,0,0,0,0,0,0,0,0,0,0,0,0,0,0,0,0,0,0,0,0,0,0,0,0,0,0,0,0,0,0,0,0,0,0,0,0,0,0,0,0,0,0,0,0,0,0,0,0,0,0,0,0,0,0,0,0,0,0,0,0,0,0,0,0,0,0,0,0,0,0,0,0,0,0,0,0,0,0,0,0,0,0,0,0,0,0,0,0,0,0,0,0,0,0,0,0,0,0,0,0,0,0,0,0,0,0,0,0,0,0,0,0,0,0,0,0,0,0,0,0,0,0,0,0,0,0,0,0,0,0,0,0,0,0,0,0,0,0,0,0,0,0,0,0,0,0,0,0,0,0,0,0,0,0,0,0,0,0,0,0,0,0,0,0,0,0,0,0,0,0,0,0,0,0,0,0,0,0,0,0,0,0,0,0,0,0,0,0,0,0,0,0,0,0,0,0,0,0,0,0,0,0,0,0,0,0,0,0,0,0,0,0,0,0,0,0,0,0,0,0,0,0,0,0,0,0,0,0,0,0,0,0,0,0,0,0,0,0,0,0,0,0,0,0,0,0,0,0,0,0,0,0,0,0,0,0,0,0,0,0,0,0,0,0,0,0,0,0,0,0,0,0,0,0,0,0,0,0,0,0,0,0,0,0,0,0,0,0,0,0,0,0,0,0,0,0,0,0,0,0,0,0,0,0,0,0,0,0,0,0,0,0,0,0,0,0,0,0,0,0,0,0,0,0,0,0,0,0,0,0,0,0,0,0,0,0,0,0,0,0,0,0,0,0,0,0,0,0,0,0,0,0,0,0,0,0,0,0,0,0,0,0,0,0,0,0,0,0,0,0,0,0,0,0,0,0],"sum_hessian":[2.5531305E4,6.779033E3,1.8752271E4,2.8476326E3,3.9314006E3,1.4536483E4,4.2157886E3,1.18843285E2,2.7287893E3,2.9622964E2,3.6351711E3,1.9122535E3,1.262423E4,2.4561953E3,1.7595934E3,9.242942E0,1.0960034E2,1.2371296E2,2.6050762E3,2.9372977E2,2.4998631E0,2.5247622E3,1.1104089E3,3.848889E2,1.5273646E3,1.8410669E3,1.0783163E4,2.2346725E2,2.232728E3,1.6723877E3,8.720572E1,1.0185363E2,7.746705E0,6.222791E1,6.1485054E1,2.5338599E3,7.121645E1,9.269314E2,1.5978307E3,9.899109E1,1.01141785E3,3.523971E2,3.2491783E1,5.246503E2,1.0027143E3,8.754317E2,9.6563525E2,1.5371168E3,9.246046E3,2.1596924E2,7.4980035E0,1.8332765E3,3.994516E2,1.1823148E3,4.9007294E2,2.2499993E0,8.495573E1,9.410376E1,7.7498775E0,5.6979126E1,5.2487807E0,3.1491795E1,2.999326E1,2.5188618E3,1.4997907E1,4.9220856E1,2.19956E1,7.557019E2,1.7122946E2,1.5800823E3,1.7748407E1,2.4248251E1,7.4742836E1,8.491989E2,1.622189E2,1.8140883E2,1.7098828E2,2.4992619E1,7.4991655E0,4.9215726E2,3.24931E1,9.254669E2,7.7247345E1,5.5795984E2,3.1747183E2,3.861967E2,5.794386E2,5.53951E2,9.8316583E2,1.4709015E3,7.775145E3,5.3478535E1,1.624907E2,5.456637E2,1.2876128E3,3.1296362E2,8.6487976E1,9.0882196E2,2.7349283E2,4.7757382E2,1.2499121E1,1.8749983E1,6.620574E1,2.9990146E0,9.1104744E1,4.848037E1,8.498759E0,2.7994043E1,1.9992146E0,1.0177413E3,1.5011206E3,1.3248004E1,1.749902E0,2.2487361E0,4.697212E1,5.0747098E2,2.4823094E2,1.3721548E3,2.079275E2,1.3874261E2,7.104563E2,5.523025E1,1.06988655E2,1.2499769E0,1.8015886E2,1.5123965E2,1.9748617E1,2.7499812E0,4.8940726E2,2.6572922E2,2.9223065E2,2.1572777E2,1.0174407E2,1.10733376E2,2.7546332E2,5.344444E2,4.49942E1,1.04994415E2,4.489566E2,5.6521173E2,4.179541E2,5.827164E2,8.8818506E2,4.743258E3,3.0318872E3,5.1978794E1,1.4997399E0,3.009729E2,2.4469078E2,2.8946814E2,9.9814465E2,3.0296393E2,9.999706E0,3.5514798E2,5.5367395E2,1.23497284E2,1.4999554E2,2.4993404E2,2.2763977E2,2.4967139E0,8.8608025E1,7.498509E0,1.0102428E3,8.4522845E2,6.558922E2,1.1998009E1,1.249996E0,1.4349278E2,3.6397818E2,1.5173889E2,9.649205E1,1.0964232E3,2.7573166E2,1.2618563E2,8.174188E1,6.4770953E2,6.2746777E1,1.1748039E1,4.3482212E1,1.0499478E1,1.4074017E2,3.0220532E2,1.8720193E2,1.7998755E1,2.4773045E2,4.5247746E1,2.469829E2,8.99919E1,1.2573587E2,9.2494955E0,9.249458E1,6.624183E1,4.4491547E1,4.2992687E1,2.3247063E2,8.774591E1,4.4669846E2,5.2495775E0,4.4370703E2,7.149613E1,4.937156E2,9.2244896E1,3.257092E2,2.9323462E2,2.8948175E2,1.847393E2,7.034458E2,3.375043E3,1.3682147E3,4.8444147E2,2.5474458E3,1.6624092E2,1.3473196E2,2.314412E2,1.3249582E1,1.6922583E2,1.20242294E2,5.2219867E2,4.7594595E2,3.1315332E2,4.1994663E1,4.1369678E2,1.3997719E2,4.4249302E1,7.9247986E1,7.8997696E1,7.099784E1,2.2543565E2,2.4498392E1,1.5745577E1,2.118942E2,1.7991516E1,9.922513E2,5.4493298E1,7.9073517E2,4.9020508E2,1.6568712E2,2.257359E2,1.382423E2,1.0374345E2,4.799544E1,8.949275E1,6.9992967E0,5.0346436E2,5.929588E2,9.824525E1,1.774864E2,2.4998062E0,1.2368583E2,6.374317E1,1.7998707E1,4.124908E1,6.0646045E2,3.7734665E1,5.747548E0,1.8245233E2,4.7496123E0,2.3648091E2,1.1249538E1,2.0499027E1,2.4748718E1,1.2324115E2,1.23741745E2,9.823892E1,2.7496948E1,1.6123792E2,7.123271E1,3.999671E1,4.0670175E2,6.5496506E1,5.9996285E0,4.3046854E2,6.3247074E1,1.1449461E2,1.7874002E2,5.0246056E1,2.392357E2,1.3599216E2,5.674536E2,3.106341E3,2.687021E2,1.305223E3,6.2991634E1,2.4497166E2,2.394698E2,5.4043634E2,2.0070094E3,6.174672E1,1.044942E2,1.5996267E1,1.18735695E2,6.1234947E1,1.7020625E2,1.3648073E2,3.2745106E1,5.7747005E1,6.249529E1,1.8821672E2,3.3398196E2,2.3522179E2,2.4072415E2,5.1246403E1,2.6190692E2,1.4647897E2,2.672178E2,9.823214E1,4.1745056E1,2.5499483E1,1.8749819E1,5.249915E1,2.6748835E1,3.9993556E0,2.214363E2,2.021443E2,9.749882E0,1.52453165E1,3.9247982E1,2.7486014E0,1.6293852E2,4.7497115E0,4.324573E1,4.7495506E1,4.5596887E2,9.19896E1,5.009692E2,8.349382E1,9.3992584E1,6.2494297E0,1.174364E2,6.7493253E0,5.6993847E1,3.7247494E1,5.6921295E2,2.2498267E0,3.5484837E1,1.8242674E1,1.6420966E2,2.3749088E1,9.999266E1,4.2497716E0,9.398915E1,2.7496061E0,6.848311E1,6.7498674E0,5.8746635E1,3.897213E2,4.0747208E1,7.349668E1,1.6573901E2,1.5498908E1,5.519547E2,1.3257283E3,1.7806127E3,1.4347594E2,1.2522615E2,1.292348E2,1.1573686E2,8.948874E1,1.4998106E2,7.124495E1,4.6919138E2,1.9212662E3,8.574313E1,5.1996925E1,9.749795E0,1.6595766E2,4.2485957E0,1.0223532E2,3.4245407E1,1.6249174E1,4.6246117E1,1.4822025E2,3.999647E1,6.2997364E1,2.7098462E2,2.139741E2,2.1247684E1,1.3499065E1,2.2722508E2,1.824926E1,3.2997143E1,1.8496338E1,2.4341057E2,2.2747988E1,1.2373098E2,1.3098587E2,1.3623193E2,8.773331E1,1.0498829E1,4.399927E1,8.499877E0,1.6492552E1,2.0494374E2],"tree_param":{"num_deleted":"0","num_feature":"10","num_nodes":"393","size_leaf_vector":"1"}},{"base_weights":[4.271748E-4,-5.8104295E-1,1.2834679E-1,9.927502E-1,-6.258319E-1,-8.9902505E-2,1.6955611E-1,-5.562767E-2,1.2776369E0,-9.044736E-1,-3.794169E-1,-3.1481853E-3,-4.3156952E-1,2.801612E-1,-1.7892411E-1,1.4526314E0,-0E0,-9.8168993E-1,2.9998967E-1,-2.6485413E-1,-5.116779E-1,-1.8972339E-1,4.7962952E-2,-5.345612E-1,-1.0899079E-1,1.847501E-2,3.208053E-1,-2.0770911E-2,-3.6050865E-1,1.4778169E0,-0E0,-0E0,-1.0581012E0,5.9716624E-1,-0E0,3.3131868E-1,-2.929366E-1,-5.165891E-1,-0E0,-1.173905E-1,-2.8428305E-2,-5.625012E-3,1.563262E-1,-6.4168E-1,-0E0,-0E0,-1.5764544E-2,-4.220788E-1,6.641718E-2,2.7182886E-2,3.6077902E-1,2.6151497E-2,-2.3331249E-1,-2.6653013E-1,-6.152786E-1,-0E0,7.817206E-2,5.274713E-1,-6.6565126E-1,-1.0780679E0,6.5705234E-1,9.7302806E-1,-0E0,-2.3119317E-2,4.1165214E-2,2.4348345E-2,-0E0,3.8852572E-2,-3.4573528E-1,-0E0,-5.2127194E-1,-4.88933E-1,-5.642126E-2,6.0025822E-2,-1.7669044E-1,-1.6473553E-1,2.0168488E-1,-1.0210384E0,-3.622269E-1,1.2665565E-1,-1.03206765E-2,-2.4857366E-2,-0E0,1.0602941E-1,-2.7132666E-1,-1.9717695E-1,7.960097E-2,6.36584E-2,3.9632002E-1,9.686074E-2,-2.938668E-1,-2.7976613E-2,-3.387552E-1,-1.6484453E-1,-4.6603754E-1,-7.8029097E-3,-6.677153E-1,4.4420537E-2,-0E0,-4.20358E-2,-0E0,-1.2316179E0,-8.726702E-1,4.2272717E-2,-0E0,5.723595E-2,-0E0,1.8070709E-2,-0E0,2.3580217E-1,-9.206036E-3,-4.352515E-1,-2.4998501E-1,-3.8173154E-2,-3.4096855E-1,-2.8698266E-2,-0E0,-1.5825409E-1,-0E0,9.778397E-2,-1.2904069E-1,-2.60849E-1,-0E0,-1.9350763E-2,-0E0,2.352194E-1,-6.122675E-3,-0E0,-1.1007382E0,-4.0063363E-1,-0E0,-0E0,2.0103836E-2,-0E0,1.786866E-1,1.0514155E-2,-5.8546114E-1,-6.4457583E-1,-0E0,1.975022E-2,2.312894E-1,2.2742128E-1,-1.2015918E-2,2.630024E-1,4.360477E-1,-5.3769402E-2,2.3304057E-1,-2.3594561E-3,-6.5351E-1,-1.1822989E-2,4.5496784E-3,-0E0,-3.6238173E-1,-2.5012106E-1,1.4851822E-1,-8.092469E-1,-3.538533E-1,-0E0,-6.810305E-1,-0E0,-1.2675071E0,-0E0,-8.91619E-1,3.2767865E-1,-0E0,-3.183357E-1,-3.4490034E-2,-0E0,-1.3526862E-2,-1.457199E-2,-6.6270137E-1,-0E0,-1.0957295E-2,7.592282E-3,-7.001859E-3,-0E0,1.7299353E-1,3.1234775E-4,-2.6134074E-1,-0E0,-3.2653794E-1,-6.564664E-3,7.405804E-3,-0E0,2.597048E-1,-1.1223141E0,-0E0,-0E0,-4.3536833E-1,3.0394772E-2,-8.624739E-3,-3.3048973E-3,2.0715657E-1,-0E0,-3.2092866E-2,-3.6516383E-2,-0E0,2.1447039E-1,-7.1014166E-2,1.3681516E-3,6.4672977E-1,2.6156667E-1,-0E0,1.51629E-1,-1.3395545E-1,2.791305E-1,-5.732826E-3,3.9357084E-1,5.385741E-1,-3.4184673E-1,-0E0,3.1612912E-1,4.2525295E-2,-0E0,-8.776896E-1,-1.968713E-2,-0E0,-4.316822E-2,-3.572627E-1,-0E0,2.4121948E-1,-8.9302367E-1,-0E0,-0E0,-4.2449117E-1,-0E0,-3.577307E-2,4.891248E-1,-5.957921E-1,-0E0,-1.2732842E0,2.3882417E-3,-4.1789785E-1,-7.658056E-1,-5.7215564E-2,2.1059973E-2,-0E0,-3.405671E-1,-0E0,-7.51278E-1,-0E0,3.8798338E-1,-3.7742995E-2,2.0499417E-1,-0E0,-0E0,-3.393199E-1,-1.9299915E-2,-0E0,2.730672E-1,-0E0,-0E0,-1.1867839E0,-4.577052E-1,-0E0,9.895781E-2,-9.328928E-2,2.3741977E-1,-0E0,1.6716696E-2,-5.975819E-3,-1.8838112E-1,1.9242841E-1,3.8182E-2,-0E0,-0E0,3.7921092E-1,3.1431386E-1,-0E0,-0E0,-3.2297382E-1,3.2100907E-1,9.939022E-2,4.2958957E-1,2.8147942E-1,5.6511086E-1,-0E0,-6.6283417E-1,-5.820266E-3,8.010302E-2,-7.420976E-2,1.8054057E-2,-0E0,1.0456056E-1,-5.0295084E-3,-0E0,-5.3354762E-2,5.7340413E-4,-2.4974982E-1,-1.7999472E-1,-8.4897286E-1,3.4849718E-1,-0E0,-8.464734E-3,-1.1185603E0,-4.6330002E-1,-0E0,-0E0,3.480205E-2,-0E0,-3.9929457E-2,-6.667989E-2,-0E0,-0E0,-3.2020383E-2,-4.0381327E-2,-0E0,-1.8618552E-2,-0E0,-0E0,-4.1438445E-2,-0E0,3.2156833E-2,4.2687473E-4,-1.1972726E-2,-0E0,1.23746E-2,-0E0,-2.6148101E-2,1.6270995E-2,7.154903E-4,-0E0,-6.405068E-2,-0E0,-2.7533961E-2,-0E0,9.407728E-3,-0E0,-2.5856562E-2,7.047358E-3,2.1589985E-2,4.1456195E-3,-2.1657452E-2,-0E0,-1.561548E-2,-0E0,1.4485944E-2,-0E0,2.128248E-2,-0E0,2.4772838E-2,1.2566869E-2,-2.8869975E-3,-0E0,-2.210535E-2,2.1070207E-2,5.775807E-3,6.32885E-4,1.1858095E-2,1.3543997E-2,2.349865E-2,1.728717E-2,-1.1872549E-4,3.0401094E-2,1.9860733E-3,-4.3049112E-2,-0E0,-9.247379E-3,7.3514944E-3,-4.5836465E-3,1.1015237E-2,-2.0673772E-2,8.511001E-4,1.2811608E-2,-0E0,-0E0,-2.4950454E-2,-1.9656764E-2,6.004686E-3,-0E0,-4.794721E-2,2.198172E-2,-0E0,-6.0772564E-2,-0E0,-0E0,-2.7006175E-2],"categories":[],"categories_nodes":[],"categories_segments":[],"categories_sizes":[],"default_left":[0,0,0,0,0,0,0,0,0,0,0,0,0,0,0,0,0,0,0,0,0,0,0,0,0,0,0,0,0,0,0,0,0,0,0,0,0,0,0,0,0,0,0,0,0,0,0,0,0,0,0,0,0,0,0,0,0,0,0,0,0,0,0,0,0,0,0,0,0,0,0,0,0,0,0,0,0,0,0,0,0,0,0,0,0,0,0,0,0,0,0,0,0,0,0,0,0,0,0,0,0,0,0,0,0,0,0,0,0,0,0,0,0,0,0,0,0,0,0,0,0,0,0,0,0,0,0,0,0,0,0,0,0,0,0,0,0,0,0,0,0,0,0,0,0,0,0,0,0,0,0,0,0,0,0,0,0,0,0,0,0,0,0,0,0,0,0,0,0,0,0,0,0,0,0,0,0,0,0,0,0,0,0,0,0,0,0,0,0,0,0,0,0,0,0,0,0,0,0,0,0,0,0,0,0,0,0,0,0,0,0,0,0,0,0,0,0,0,0,0,0,0,0,0,0,0,0,0,0,0,0,0,0,0,0,0,0,0,0,0,0,0,0,0,0,0,0,0,0,0,0,0,0,0,0,0,0,0,0,0,0,0,0,0,0,0,0,0,0,0,0,0,0,0,0,0,0,0,0,0,0,0,0,0,0,0,0,0,0,0,0,0,0,0,0,0,0,0,0,0,0,0,0,0,0,0,0,0,0,0,0,0,0,0,0,0,0,0,0,0,0,0,0,0,0,0,0,0,0,0,0,0,0,0,0,0,0,0,0,0,0,0,0,0,0,0,0,0,0,0,0,0,0,0,0,0,0,0,0,0,0,0,0,0,0,0,0,0,0,0,0,0,0,0,0,0,0],"id":2,"left_children":[1,3,5,7,9,11,13,-1,15,17,19,21,23,25,27,29,-1,31,33,35,37,39,41,43,45,47,49,51,53,55,-1,57,59,61,63,65,67,69,-1,71,-1,73,75,77,-1,79,-1,81,83,85,87,89,91,93,95,-1,-1,97,99,101,103,105,-1,-1,107,-1,-1,109,111,-1,113,115,117,119,121,123,125,127,129,131,-1,-1,-1,133,135,137,139,141,143,145,147,149,151,153,155,-1,157,-1,-1,-1,-1,159,161,-1,-1,-1,-1,-1,-1,163,-1,165,167,-1,169,-1,-1,171,173,175,177,179,181,-1,-1,183,-1,-1,185,187,-1,-1,-1,189,191,-1,193,195,-1,197,199,201,203,205,207,209,211,-1,213,-1,-1,-1,215,217,219,221,223,-1,225,227,229,231,233,235,-1,237,-1,-1,-1,-1,239,-1,-1,-1,-1,241,243,-1,245,-1,247,-1,-1,-1,249,251,-1,-1,253,255,-1,-1,257,-1,-1,-1,-1,259,261,-1,263,265,-1,267,269,271,-1,273,275,277,279,281,283,-1,285,-1,-1,287,289,-1,291,293,-1,-1,295,-1,-1,297,299,-1,301,-1,303,305,-1,-1,-1,307,-1,309,-1,311,313,315,-1,-1,317,-1,-1,319,-1,-1,321,323,-1,325,327,329,331,-1,-1,333,335,-1,-1,-1,337,339,-1,341,343,345,347,349,351,353,-1,355,357,359,361,-1,-1,363,-1,-1,-1,-1,365,367,369,371,-1,-1,373,375,-1,-1,-1,-1,-1,-1,-1,-1,-1,-1,-1,-1,-1,-1,-1,-1,-1,-1,-1,-1,-1,-1,-1,-1,-1,-1,-1,-1,-1,-1,-1,-1,-1,-1,-1,-1,-1,-1,-1,-1,-1,-1,-1,-1,-1,-1,-1,-1,-1,-1,-1,-1,-1,-1,-1,-1,-1,-1,-1,-1,-1,-1,-1,-1,-1,-1,-1,-1,-1,-1,-1,-1,-1,-1,-1,-1,-1,-1,-1,-1,-1],"loss_changes":[1.893977E3,3.2118848E2,1.8883258E2,7.500615E1,2.9609766E2,9.411616E1,6.8042615E2,0E0,2.0028427E1,1.9929236E2,2.9812012E1,2.6378073E1,1.6306793E1,1.3980591E2,1.1843715E2,4.33786E0,0E0,1.5312793E2,1.3892718E1,2.179869E1,3.627533E0,1.014521E1,1.3079353E1,2.2126694E1,3.4221964E0,3.581196E1,1.327107E2,2.4467297E1,3.9343185E1,2.6255646E0,0E0,4.7833694E1,6.6639404E1,1.6955582E1,3.1256166E0,4.4347486E0,2.4699524E1,2.9500122E0,0E0,7.4029026E0,0E0,1.5761883E1,1.09028E1,2.894522E1,0E0,3.057434E0,0E0,2.3614922E0,2.100733E1,1.5678316E1,1.0359412E2,4.0146313E1,6.670845E0,2.4200645E1,5.5526123E0,0E0,0E0,1.44789295E1,3.313385E0,3.9057373E1,2.5540228E0,6.6611786E0,0E0,0E0,2.980252E0,0E0,0E0,7.068293E0,3.948761E0,0E0,3.1586945E1,2.7829428E0,3.1141286E0,6.3316116E0,6.004174E0,4.705471E0,8.022055E0,1.0678955E1,5.3144245E0,3.8886943E0,0E0,0E0,0E0,1.1622208E1,2.6099577E1,2.3337326E1,8.642044E0,1.5499899E1,4.2214355E1,3.2847015E1,2.236014E1,5.22274E0,3.9757462E0,2.7211287E1,8.121407E0,0E0,4.8970337E0,0E0,0E0,0E0,0E0,3.92782E1,6.289917E0,0E0,0E0,0E0,0E0,0E0,0E0,3.056682E0,0E0,6.0277176E0,2.3060226E0,0E0,3.9449158E0,0E0,0E0,2.5710144E0,5.633688E0,6.4999695E0,4.162941E0,3.1567516E0,2.3401601E0,0E0,0E0,4.6006355E0,0E0,0E0,3.4282074E0,3.9922447E0,0E0,0E0,0E0,3.0847092E0,7.351265E0,0E0,2.4873886E0,4.264866E0,0E0,1.6739168E1,1.96419E1,4.251377E0,1.4394842E1,1.4188126E1,2.2461304E1,1.3172349E1,1.0278839E1,0E0,1.2039684E1,0E0,0E0,0E0,2.6377869E0,1.4418003E1,4.4617715E0,8.388199E0,7.794941E0,0E0,2.525299E0,1.038314E1,1.1528198E1,3.4291236E0,4.331726E0,2.3160915E0,0E0,3.5128784E0,0E0,0E0,0E0,0E0,3.3929405E0,0E0,0E0,0E0,0E0,3.6480865E0,4.0288124E0,0E0,2.8809276E0,0E0,3.8703003E0,0E0,0E0,0E0,2.9072685E0,3.136383E0,0E0,0E0,3.4696693E0,4.5010605E0,0E0,0E0,6.708233E0,0E0,0E0,0E0,0E0,1.2514238E1,1.7743061E1,0E0,2.6672478E0,1.1186964E1,0E0,6.981756E0,1.2401478E1,1.2099579E1,0E0,1.4178772E1,3.177417E1,8.656764E0,3.4385586E0,6.573311E0,2.5185232E0,0E0,4.0365753E0,0E0,0E0,5.255828E0,3.505254E1,0E0,6.5908794E0,4.137497E0,0E0,0E0,7.917755E0,0E0,0E0,2.2876003E0,2.7280426E0,0E0,4.0394287E0,0E0,2.557127E0,4.415161E0,0E0,0E0,0E0,2.4974365E0,0E0,2.5951843E0,0E0,3.772179E0,4.5177355E0,3.1674519E0,0E0,0E0,7.508177E0,0E0,0E0,3.0979233E0,0E0,0E0,3.3388977E0,3.7593842E0,0E0,4.10944E0,5.7080894E0,9.1473465E0,4.8174934E0,0E0,0E0,6.459202E0,3.8106422E0,0E0,0E0,0E0,2.4510384E0,9.602568E0,0E0,4.01808E0,4.9266434E0,2.4518478E1,2.8526688E0,7.73407E0,2.0733345E1,1.3592102E1,0E0,7.9516315E0,2.2573924E0,8.06328E0,1.0440401E1,0E0,0E0,4.092211E0,0E0,0E0,0E0,0E0,3.9181032E0,2.4301458E1,7.8062134E0,4.686678E0,0E0,0E0,2.8125153E0,7.201191E0,0E0,0E0,0E0,0E0,0E0,0E0,0E0,0E0,0E0,0E0,0E0,0E0,0E0,0E0,0E0,0E0,0E0,0E0,0E0,0E0,0E0,0E0,0E0,0E0,0E0,0E0,0E0,0E0,0E0,0E0,0E0,0E0,0E0,0E0,0E0,0E0,0E0,0E0,0E0,0E0,0E0,0E0,0E0,0E0,0E0,0E0,0E0,0E0,0E0,0E0,0E0,0E0,0E0,0E0,0E0,0E0,0E0,0E0,0E0,0E0,0E0,0E0,0E0,0E0,0E0,0E0,0E0,0E0,0E0,0E0,0E0,0E0,0E0,0E0,0E0,0E0,0E0,0E0,0E0,0E0,0E0],"parents":[2147483647,0,0,1,1,2,2,3,3,4,4,5,5,6,6,8,8,9,9,10,10,11,11,12,12,13,13,14,14,15,15,17,17,18,18,19,19,20,20,21,21,22,22,23,23,24,24,25,25,26,26,27,27,28,28,29,29,31,31,32,32,33,33,34,34,35,35,36,36,37,37,39,39,41,41,42,42,43,43,45,45,47,47,48,48,49,49,50,50,51,51,52,52,53,53,54,54,57,57,58,58,59,59,60,60,61,61,64,64,67,67,68,68,70,70,71,71,72,72,73,73,74,74,75,75,76,76,77,77,78,78,79,79,83,83,84,84,85,85,86,86,87,87,88,88,89,89,90,90,91,91,92,92,93,93,94,94,96,96,101,101,102,102,109,109,111,111,112,112,114,114,117,117,118,118,119,119,120,120,121,121,122,122,125,125,128,128,129,129,133,133,134,134,136,136,137,137,139,139,140,140,141,141,142,142,143,143,144,144,145,145,146,146,148,148,152,152,153,153,154,154,155,155,156,156,158,158,159,159,160,160,161,161,162,162,163,163,165,165,170,170,175,175,176,176,178,178,180,180,184,184,185,185,188,188,189,189,192,192,197,197,198,198,200,200,201,201,203,203,204,204,205,205,207,207,208,208,209,209,210,210,211,211,212,212,214,214,217,217,218,218,220,220,221,221,224,224,227,227,228,228,230,230,232,232,233,233,237,237,239,239,241,241,242,242,243,243,246,246,249,249,252,252,253,253,255,255,256,256,257,257,258,258,261,261,262,262,266,266,267,267,269,269,270,270,271,271,272,272,273,273,274,274,275,275,277,277,278,278,279,279,280,280,283,283,288,288,289,289,290,290,291,291,294,294,295,295],"right_children":[2,4,6,8,10,12,14,-1,16,18,20,22,24,26,28,30,-1,32,34,36,38,40,42,44,46,48,50,52,54,56,-1,58,60,62,64,66,68,70,-1,72,-1,74,76,78,-1,80,-1,82,84,86,88,90,92,94,96,-1,-1,98,100,102,104,106,-1,-1,108,-1,-1,110,112,-1,114,116,118,120,122,124,126,128,130,132,-1,-1,-1,134,136,138,140,142,144,146,148,150,152,154,156,-1,158,-1,-1,-1,-1,160,162,-1,-1,-1,-1,-1,-1,164,-1,166,168,-1,170,-1,-1,172,174,176,178,180,182,-1,-1,184,-1,-1,186,188,-1,-1,-1,190,192,-1,194,196,-1,198,200,202,204,206,208,210,212,-1,214,-1,-1,-1,216,218,220,222,224,-1,226,228,230,232,234,236,-1,238,-1,-1,-1,-1,240,-1,-1,-1,-1,242,244,-1,246,-1,248,-1,-1,-1,250,252,-1,-1,254,256,-1,-1,258,-1,-1,-1,-1,260,262,-1,264,266,-1,268,270,272,-1,274,276,278,280,282,284,-1,286,-1,-1,288,290,-1,292,294,-1,-1,296,-1,-1,298,300,-1,302,-1,304,306,-1,-1,-1,308,-1,310,-1,312,314,316,-1,-1,318,-1,-1,320,-1,-1,322,324,-1,326,328,330,332,-1,-1,334,336,-1,-1,-1,338,340,-1,342,344,346,348,350,352,354,-1,356,358,360,362,-1,-1,364,-1,-1,-1,-1,366,368,370,372,-1,-1,374,376,-1,-1,-1,-1,-1,-1,-1,-1,-1,-1,-1,-1,-1,-1,-1,-1,-1,-1,-1,-1,-1,-1,-1,-1,-1,-1,-1,-1,-1,-1,-1,-1,-1,-1,-1,-1,-1,-1,-1,-1,-1,-1,-1,-1,-1,-1,-1,-1,-1,-1,-1,-1,-1,-1,-1,-1,-1,-1,-1,-1,-1,-1,-1,-1,-1,-1,-1,-1,-1,-1,-1,-1,-1,-1,-1,-1,-1,-1,-1,-1,-1],"split_conditions":[3.4358975E-1,1.8994413E-1,1.7426273E-1,1.3063063E-1,3.12E-1,2.901836E-1,2.962963E-1,-5.562767E-2,8E1,4.7875354E-1,3.28E2,1.4534883E-1,2.517321E-1,1.6666667E-1,4.0526316E-1,3.73E2,-0E0,2.4666667E-1,2.1782178E-1,2.0326678E-1,5.9636366E-1,4.23E2,3.911672E-1,3.4545454E-1,4.5255473E-1,1.2376238E-1,2.1393035E-1,3.1896552E-1,5.9636366E-1,3.5135135E-1,-0E0,1.06E2,1.0096433E0,1E2,1.3114753E-1,1.56E2,2.4861878E-1,1.9277108E-1,-0E0,1.0817942E-1,-2.8428305E-2,1.6951297E-1,2.0472442E-1,3.116883E-1,-0E0,3.316583E-1,-1.5764544E-2,3.1707317E-1,3.940678E-1,2.2660099E-1,2.1052632E-1,3.2330826E-1,2.0465116E-1,2.9444444E-1,1.9090909E-1,-0E0,7.817206E-2,1.4141414E-1,1.6778524E-1,2.9347825E-1,1.02E2,1.6838488E-1,-0E0,-2.3119317E-2,2.86E2,2.4348345E-2,-0E0,1.7230769E-1,2.52E2,-0E0,3.2840237E-1,5.3571427E-1,3.691275E-1,3.9759037E-1,3.95E2,3.24E2,3.529412E-1,1.9871795E-1,4.0522876E-1,4.2792794E-1,-1.03206765E-2,-2.4857366E-2,-0E0,3.7142858E-1,2.46E2,2.65E2,5.4140127E-1,2.76E-1,1.9313304E-1,7.9E1,2.1081081E-1,1.9021739E-1,3.4969324E-1,5.75419E-1,1.891892E-1,-7.8029097E-3,1.28E2,4.4420537E-2,-0E0,-4.20358E-2,-0E0,3.1E1,2.3950617E-1,4.2272717E-2,-0E0,5.723595E-2,-0E0,1.8070709E-2,-0E0,1.22E2,-9.206036E-3,2.0769231E-1,4.4E1,-3.8173154E-2,3.9130434E-1,-2.8698266E-2,-0E0,4.9E1,1.14646904E-1,1.9871795E-1,3.5260117E-1,1.5584415E-1,3.212121E-1,-1.9350763E-2,-0E0,3.8E1,-6.122675E-3,-0E0,2.23E2,3.457627E-1,-0E0,-0E0,2.0103836E-2,2.202166E-1,3.7E1,1.0514155E-2,5.3E1,7.7E1,-0E0,1.1028632E-1,9E1,2.74673E-1,1.2207792E-1,2.8059897E-1,1.17E2,1.9796954E-1,2.846975E-1,-2.3594561E-3,4.2792794E-1,-1.1822989E-2,4.5496784E-3,-0E0,2.72E2,4.6502057E-1,2.7403846E-1,4.1558442E-1,3.866171E-1,-0E0,3.814433E-1,2.5E-1,1E0,2.15E2,3.6E2,2.77E2,-0E0,4.4444445E-1,-3.4490034E-2,-0E0,-1.3526862E-2,-1.457199E-2,3.4134614E-1,-0E0,-1.0957295E-2,7.592282E-3,-7.001859E-3,1.92E2,1.7167382E-1,3.1234775E-4,1.7991632E-1,-0E0,2.74673E-1,-6.564664E-3,7.405804E-3,-0E0,2.04E2,1.4979757E-1,-0E0,-0E0,1.0096433E0,3.97E2,-8.624739E-3,-3.3048973E-3,4.79E2,-0E0,-3.2092866E-2,-3.6516383E-2,-0E0,3.7E2,2.4464832E-1,1.3681516E-3,2.9929578E-1,4.9E1,-0E0,2.67E2,2.56705E-1,3.3663365E-1,-5.732826E-3,2.0116279E-1,3.448276E-1,5.7024795E-1,2.6600984E-1,3.2333332E-1,4.796748E-1,-0E0,2.46E2,-1.968713E-2,-0E0,3.77E2,2.8292683E-1,-0E0,6.813187E-1,3.7462234E-1,-0E0,-0E0,2.04E2,-0E0,-3.577307E-2,1.47E2,2.863248E-1,-0E0,1.9337016E-1,2.3882417E-3,1.3389121E-1,2.1472393E-1,-5.7215564E-2,2.1059973E-2,-0E0,1.986677E-1,-0E0,7.7E1,-0E0,3.3E1,3.501805E-1,2.15E2,-0E0,-0E0,2.13E2,-1.9299915E-2,-0E0,4.25E2,-0E0,-0E0,2.9321662E-1,1.9337016E-1,-0E0,2.61E2,3.6764705E-1,1.05E2,3.372781E-1,1.6716696E-2,-5.975819E-3,2.82E2,1.4539474E-1,3.8182E-2,-0E0,-0E0,2.2171946E-1,3.4E1,-0E0,2.23E2,1.992032E-1,3.2804233E-1,1.27E2,2.3295455E-1,3.183391E-1,3.5403726E-1,-0E0,2.8865978E-1,2.3737374E-1,2.345679E-1,2.2171946E-1,1.8054057E-2,-0E0,2.1081081E-1,-5.0295084E-3,-0E0,-5.3354762E-2,5.7340413E-4,2.2097379E-1,9.2E1,2.2377622E-1,2.4035609E-1,-0E0,-8.464734E-3,3.9215687E-1,1.92E2,-0E0,-0E0,3.480205E-2,-0E0,-3.9929457E-2,-6.667989E-2,-0E0,-0E0,-3.2020383E-2,-4.0381327E-2,-0E0,-1.8618552E-2,-0E0,-0E0,-4.1438445E-2,-0E0,3.2156833E-2,4.2687473E-4,-1.1972726E-2,-0E0,1.23746E-2,-0E0,-2.6148101E-2,1.6270995E-2,7.154903E-4,-0E0,-6.405068E-2,-0E0,-2.7533961E-2,-0E0,9.407728E-3,-0E0,-2.5856562E-2,7.047358E-3,2.1589985E-2,4.1456195E-3,-2.1657452E-2,-0E0,-1.561548E-2,-0E0,1.4485944E-2,-0E0,2.128248E-2,-0E0,2.4772838E-2,1.2566869E-2,-2.8869975E-3,-0E0,-2.210535E-2,2.1070207E-2,5.775807E-3,6.32885E-4,1.1858095E-2,1.3543997E-2,2.349865E-2,1.728717E-2,-1.1872549E-4,3.0401094E-2,1.9860733E-3,-4.3049112E-2,-0E0,-9.247379E-3,7.3514944E-3,-4.5836465E-3,1.1015237E-2,-2.0673772E-2,8.511001E-4,1.2811608E-2,-0E0,-0E0,-2.4950454E-2,-1.9656764E-2,6.004686E-3,-0E0,-4.794721E-2,2.198172E-2,-0E0,-6.0772564E-2,-0E0,-0E0,-2.7006175E-2],"split_indices":[4,4,7,6,4,1,1,0,5,8,0,7,9,9,1,0,0,8,6,8,1,0,4,8,4,9,8,8,1,6,0,5,1,5,7,5,6,6,0,7,0,1,8,6,0,6,0,6,6,6,6,6,7,8,9,0,0,7,9,4,5,9,0,0,0,0,0,9,0,0,4,4,4,8,0,0,8,9,4,4,0,0,0,4,0,0,4,8,7,5,9,7,4,4,7,0,0,0,0,0,0,5,6,0,0,0,0,0,0,5,0,1,5,0,6,0,0,5,1,9,4,7,6,0,0,5,0,0,5,4,0,0,0,7,5,0,5,5,0,1,5,1,1,1,5,6,6,0,4,0,0,0,5,4,9,4,4,0,4,4,3,0,0,0,0,6,0,0,0,0,4,0,0,0,0,0,7,0,6,0,1,0,0,0,5,7,0,0,1,0,0,0,0,0,0,0,0,0,7,0,7,5,0,0,7,6,0,1,6,4,6,7,4,0,0,0,0,0,6,0,4,4,0,0,5,0,0,0,6,0,9,0,9,9,0,0,0,1,0,5,0,5,6,0,0,0,0,0,0,0,0,0,8,9,0,0,8,5,8,0,0,0,1,0,0,0,8,5,0,0,9,8,5,8,8,8,0,9,8,9,8,0,0,9,0,0,0,0,9,5,9,6,0,0,8,0,0,0,0,0,0,0,0,0,0,0,0,0,0,0,0,0,0,0,0,0,0,0,0,0,0,0,0,0,0,0,0,0,0,0,0,0,0,0,0,0,0,0,0,0,0,0,0,0,0,0,0,0,0,0,0,0,0,0,0,0,0,0,0,0,0,0,0,0,0,0,0,0,0,0,0,0,0,0,0,0,0],"split_type":[0,0,0,0,0,0,0,0,0,0,0,0,0,0,0,0,0,0,0,0,0,0,0,0,0,0,0,0,0,0,0,0,0,0,0,0,0,0,0,0,0,0,0,0,0,0,0,0,0,0,0,0,0,0,0,0,0,0,0,0,0,0,0,0,0,0,0,0,0,0,0,0,0,0,0,0,0,0,0,0,0,0,0,0,0,0,0,0,0,0,0,0,0,0,0,0,0,0,0,0,0,0,0,0,0,0,0,0,0,0,0,0,0,0,0,0,0,0,0,0,0,0,0,0,0,0,0,0,0,0,0,0,0,0,0,0,0,0,0,0,0,0,0,0,0,0,0,0,0,0,0,0,0,0,0,0,0,0,0,0,0,0,0,0,0,0,0,0,0,0,0,0,0,0,0,0,0,0,0,0,0,0,0,0,0,0,0,0,0,0,0,0,0,0,0,0,0,0,0,0,0,0,0,0,0,0,0,0,0,0,0,0,0,0,0,0,0,0,0,0,0,0,0,0,0,0,0,0,0,0,0,0,0,0,0,0,0,0,0,0,0,0,0,0,0,0,0,0,0,0,0,0,0,0,0,0,0,0,0,0,0,0,0,0,0,0,0,0,0,0,0,0,0,0,0,0,0,0,0,0,0,0,0,0,0,0,0,0,0,0,0,0,0,0,0,0,0,0,0,0,0,0,0,0,0,0,0,0,0,0,0,0,0,0,0,0,0,0,0,0,0,0,0,0,0,0,0,0,0,0,0,0,0,0,0,0,0,0,0,0,0,0,0,0,0,0,0,0,0,0,0,0,0,0,0,0,0,0,0,0,0,0,0,0,0,0,0,0,0,0,0,0,0,0,0,0,0],"sum_hessian":[2.550975E4,4.588026E3,2.0921725E4,1.2138572E2,4.46664E3,3.2918416E3,1.7629883E4,1.0970047E1,1.1041567E2,2.0796458E3,2.3869941E3,2.6448237E3,6.470179E2,1.3400037E4,4.2298467E3,9.466827E1,1.5747413E1,1.9607972E3,1.1884862E2,1.3132711E3,1.0737231E3,6.018695E2,2.0429541E3,4.7105914E2,1.7595872E2,1.8281896E3,1.1571847E4,2.2850273E3,1.9448195E3,9.341967E1,1.2485917E0,1.3634776E2,1.8244495E3,6.816355E1,5.0685062E1,4.5715954E1,1.267555E3,1.0669777E3,6.745467E0,5.2016046E2,8.170909E1,1.3180955E3,7.248587E2,3.8032935E2,9.07298E1,1.1672538E2,5.923335E1,1.6219432E2,1.6659952E3,1.4108757E3,1.0160972E4,1.8416328E3,4.4339447E2,1.4453185E3,4.9950104E2,1.748769E0,9.1670906E1,8.091645E1,5.5431313E1,1.8084648E3,1.598461E1,4.2926193E1,2.5237362E1,1.4484543E1,3.620052E1,4.2716217E1,2.9997375E0,1.5319717E2,1.1143579E3,8.246268E0,1.0587313E3,5.3734985E1,4.6642545E2,9.191397E2,3.9895575E2,6.74929E1,6.573658E2,1.4796527E2,2.3236406E2,6.823806E1,4.8487316E1,1.3694864E2,2.5245678E1,1.513016E3,1.5297925E2,2.3766641E2,1.1732094E3,1.1100099E3,9.050962E3,1.5294886E3,3.1214417E2,1.767025E2,2.66692E2,9.8527374E2,4.6004474E2,6.647805E1,4.3302298E2,5.0188534E1,3.0727917E1,4.244147E1,1.2989842E1,1.0094835E3,7.989814E2,1.3984865E1,1.9997439E0,3.8929016E1,3.9971752E0,2.4220358E1,1.1980164E1,9.946017E1,5.3737003E1,5.3069745E2,5.836605E2,4.6493225E2,5.9379913E2,5.1235165E1,2.4998229E0,1.8271227E2,2.837132E2,8.01927E2,1.1721272E2,2.7072333E2,1.2823242E2,4.649563E1,2.0997267E1,6.1787024E2,3.949556E1,1.1984556E1,1.3598071E2,2.2286635E2,9.497716E0,3.574131E1,3.249675E1,6.169593E2,8.9605664E2,5.0995426E1,1.01983826E2,7.74553E1,1.6021112E2,8.8004956E2,2.9315976E2,3.8365646E2,7.263534E2,2.1261174E3,6.924844E3,6.985466E2,8.3094214E2,1.9846902E2,1.1367515E2,8.996714E1,8.673537E1,3.499535E0,2.6319244E2,7.9479584E2,1.9047789E2,9.410248E1,3.6594226E2,6.2494016E0,4.267736E2,3.196771E1,9.775158E2,2.5731724E1,7.7324963E2,7.946504E1,1.9995125E1,3.7530963E2,1.553878E2,8.994743E0,5.746658E2,5.215829E2,7.221623E1,2.1745577E1,1.6096669E2,1.4573012E2,1.3798308E2,3.292291E2,4.726979E2,2.8495932E1,8.871679E1,6.874138E1,2.0198193E2,6.72391E1,6.099332E1,4.2993046E1,5.748772E2,1.3348425E2,2.4964528E0,1.3242126E1,2.0962422E2,5.2321436E2,9.374497E1,6.448756E1,8.315691E2,3.4996564E0,9.848417E1,7.3955475E1,3.4998248E0,3.0743893E2,5.726106E2,2.0997049E2,8.318928E1,3.5191013E2,3.1746319E1,2.8194028E2,4.444131E2,2.0588826E3,6.7235E1,4.9552246E3,1.9696195E3,1.2897533E2,5.695712E2,5.487962E2,2.8214597E2,3.5493843E1,7.8181305E1,2.601927E2,2.9997432E0,2.971595E2,4.9763632E2,4.2244583E1,1.482333E2,8.760462E1,6.497857E0,6.8719086E1,2.9722318E2,1.9965329E0,4.2477707E2,1.3739746E1,1.8227964E1,1.7488511E0,9.7576697E2,7.249084E0,1.848264E1,5.081993E2,2.6505032E2,6.596835E1,1.3496685E1,3.5806445E2,1.724519E1,6.1969074E1,1.0247157E1,2.0247883E1,3.089812E2,4.322053E2,4.0492626E1,1.14974985E1,7.721929E1,1.8473334E2,1.7248598E1,5.5888E2,1.5997189E1,1.199312E1,1.21491135E2,2.0612524E2,3.4989734E0,3.784789E2,1.4473541E2,7.5184106E2,7.972801E1,2.50701E2,5.673793E1,4.1740344E2,1.5520715E2,6.9449524E1,1.373976E1,1.0723667E2,2.4467346E2,1.3547626E2,1.4646402E2,2.4994748E2,1.944656E2,1.6329532E3,4.2592926E2,3.6937485E3,1.261476E3,1.8883813E3,8.123825E1,5.323002E1,7.574531E1,3.181475E2,2.5142374E2,5.108056E2,3.7990574E1,2.3519199E2,4.695398E1,1.7245129E1,6.0936172E1,2.0544269E2,9.17168E1,3.7881992E2,1.18816414E2,1.2473825E2,2.349506E1,2.9485899E1,5.8118725E1,2.8623254E2,1.0990611E1,1.7470531E0,1.1992693E1,2.999999E0,1.5227965E1,9.6730817E2,8.4588E0,3.748945E0,1.4733694E1,5.029554E2,5.2438817E0,3.4432498E2,1.3739478E1,2.7487032E0,5.922037E1,2.9996576E0,1.7248226E1,2.1649017E2,9.249103E1,5.474517E1,3.774601E2,1.2749359E1,6.446993E1,4.5814606E2,1.0073394E2,6.248054E0,1.1524308E2,3.8480083E1,1.6764516E2,1.3974283E2,2.3873608E2,1.174891E2,2.7246315E1,5.069008E2,2.4494029E2,5.4981712E1,2.4746298E1,1.8147673E2,2.3592671E2,3.22417E1,1.22965454E2,1.949633E1,2.2517714E2,3.449598E1,1.00980286E2,5.774307E1,1.9220442E2,5.499411E1,1.394715E2,1.140104E3,4.9284927E2,2.9145743E2,1.3447183E2,4.620149E2,3.2317336E3,1.0947773E3,1.6669856E2,1.8089039E3,7.9477356E1,4.5480515E1,7.7495036E0,5.9996513E1,1.5748797E1,1.1295633E2,2.0519116E2,7.370793E1,1.7771579E2,1.09228714E2,1.2596327E2,5.049538E1,4.122142E1,2.4311542E2,1.357045E2,8.749412E0,1.10067E2,1.10989075E2,1.3749179E1,5.537133E1,2.7473972E0,3.1229351E1,2.550032E2],"tree_param":{"num_deleted":"0","num_feature":"10","num_nodes":"377","size_leaf_vector":"1"}},{"base_weights":[-3.6074496E-3,-3.494139E-1,1.2400944E-1,-6.871646E-1,-1.2577069E-1,2.1876815E-1,-1.8161309E-1,9.1824335E-1,-7.6039875E-1,-3.5925765E-2,-4.0959236E-1,-1.497069E-1,3.0341366E-1,-3.0610204E-2,-3.6382696E-1,-4.607187E-2,1.2552214E0,-8.0917126E-1,1.18271254E-1,-3.0733225E-1,1.5892815E-2,-4.7740814E-1,-1.0595346E-1,-4.3613428E-1,-3.7964317E-3,3.1722777E-2,3.4758127E-1,5.09358E-3,-2.4196929E-1,-2.8784114E-1,-5.594244E-1,7.2119E-2,-0E0,-0E0,-8.6605376E-1,6.719797E-1,-5.760716E-1,-0E0,-1.6468262E-2,5.789702E-2,-2.1418741E-1,-5.374278E-1,-2.2582054E-1,-0E0,-1.4983118E-2,-4.869692E-1,2.0632358E-1,-3.903503E-1,2.8262615E-2,6.2429346E-2,-2.3771347E-1,1.481912E-1,4.0066183E-1,8.669934E-2,-2.3864155E-1,-1.3953024E-1,-6.27952E-1,-3.5446453E-1,1.24221586E-1,-0E0,-5.761524E-1,-3.892982E-1,3.033062E-1,-1.089968E0,-6.0825396E-1,7.873628E-1,-0E0,-3.9944153E-2,-0E0,-5.5680882E-2,1.2934308E-1,-0E0,-3.6223605E-1,-8.532628E-1,-3.8326207E-1,-3.7998855E-1,-0E0,-8.428115E-1,-3.3654505E-1,5.9758985E-1,-1.0005853E-3,-2.2615263E-2,-0E0,6.6211715E-2,-1.8830982E-1,-7.150996E-2,1.4737304E-1,-4.7312284E-1,1.9728644E-3,2.4262469E-1,7.4886516E-2,2.7000323E-1,4.4740152E-1,-3.3503905E-2,1.9692126E-1,-4.6120712E-1,-1.5031244E-1,-0E0,-2.7268612E-1,-0E0,-6.9434494E-1,-2.4191435E-1,-5.169615E-1,-0E0,1.9856524E-1,-5.936605E-1,-0E0,-0E0,-5.8807194E-1,5.9429586E-1,-0E0,-1.1206577E0,8.7101525E-1,-5.0140357E-1,-4.2813886E-2,8.848083E-1,-0E0,3.2196946E-2,-2.01009E-1,2.8879404E-1,7.496805E-2,1.4404602E-1,-1.8352272E-2,3.223327E-4,-5.409677E-1,-1.6510919E-2,-1.0968976E0,-2.0954316E-2,-0E0,-4.711445E-1,-0E0,-0E0,-8.6683613E-1,-2.1096674E-1,-2.2899747E-2,7.286471E-1,-0E0,1.00094914E-1,-6.2267672E-2,4.2253206E-3,-2.1638788E-2,1.14265665E-1,-1.449415E-1,-4.745947E-3,3.417899E-1,-5.977515E-1,-0E0,-0E0,2.718975E-1,1.9645847E-1,-4.173974E-2,3.114416E-1,7.464224E-2,4.721369E-1,2.9497066E-1,-1.5651124E-2,1.334988E-2,2.7812663E-1,-0E0,-0E0,-6.791098E-1,-3.3627892E-1,-5.307316E-2,-0E0,-2.1392442E-2,-0E0,-7.5066125E-1,-5.3683263E-1,-3.2176983E-2,-5.365051E-1,-0E0,2.6716292E-1,-0E0,-0E0,-3.121728E-2,-0E0,-3.8248174E-2,3.3839744E-2,-0E0,3.1179978E-2,-1.1381258E0,-0E0,5.503863E-2,-0E0,-2.6991518E-2,4.9859546E-2,-0E0,3.0362526E-1,-0E0,2.0610119E-4,-3.2522553E-1,3.5504737E-1,-0E0,1.0990658E-1,-4.3210476E-3,1.6078794E-2,-0E0,-2.9658213E-2,-0E0,-0E0,-1.2034354E0,-5.4859453E-1,-0E0,-0E0,-9.0530795E-1,-2.9753557E-1,-0E0,-0E0,4.287838E-2,-4.9399987E-2,1.3094442E-1,-0E0,-5.2945125E-1,1.9975588E-1,-0E0,1.3642877E-1,-2.1043411E-1,1.844317E-1,-1.4147486E-1,3.649332E-1,-0E0,-4.0217996E-2,-0E0,3.1914833E-1,-5.174768E-3,-0E0,2.590698E-1,-1.3241726E-1,1.9178635E-1,-0E0,3.3903846E-1,-0E0,1.609408E-1,3.8481757E-1,5.103515E-1,4.0530622E-1,1.00536264E-1,-1.7497025E-1,1.11654855E-1,3.695832E-1,1.00037396E-1,1.9062804E-1,-1.0770948E-1,-0E0,-4.074105E-2,-3.9037347E-1,-0E0,5.2331924E-3,-6.4114295E-3,-4.1259468E-2,-0E0,-6.3397765E-1,-0E0,3.263815E-2,-3.3174285E-1,-5.510719E-1,-0E0,1.9015457E-2,-0E0,-0E0,-1.1499685E0,3.8235533E-1,-0E0,-2.3817736E-1,1.7897921E-3,-3.6126554E-1,-0E0,4.5177987E-1,-0E0,-5.443122E-3,1.2781924E-2,-5.940388E-2,1.5198556E-1,-6.4248905E-2,-0E0,-3.1333536E-2,-0E0,-4.803004E-2,-0E0,-3.321856E-1,-0E0,-2.3439415E-1,-0E0,1.5669248E-1,-0E0,-0E0,-3.3237547E-2,-0E0,2.757609E-1,-0E0,1.944297E-2,3.169548E-4,-3.5750362E-1,2.4428798E-1,-0E0,-2.4986848E-1,1.2514121E-3,2.0295473E-2,-0E0,1.7183863E-1,3.9596272E-1,3.2243334E-2,-2.7401397E-1,-0E0,3.8876182E-1,-3.3881226E-1,-8.344817E-4,1.9260876E-2,-4.561057E-4,1.7050644E-2,-3.7133987E-3,1.3316217E-1,3.7597463E-1,2.5738177E-1,-0E0,1.4905176E-1,4.0988782E-1,5.537252E-1,4.1434717E-1,4.2730737E-1,-0E0,-4.0067276E-3,2.3836884E-1,-4.6787363E-1,8.185755E-3,2.2746573E-1,-3.6680024E-2,4.0348816E-1,-0E0,2.340512E-1,-4.0976615E-3,-0E0,1.347284E-2,-0E0,-3.976096E-2,-0E0,-2.3479154E-2,-6.5356934E-1,-0E0,-9.29432E-2,1.17104724E-1,-0E0,-5.562862E-1,-5.6277883E-1,-0E0,-7.0820665E-3,-6.1013576E-2,2.252715E-2,-0E0,-1.643486E-2,-0E0,-2.096267E-2,-0E0,2.5203869E-2,-0E0,-7.636009E-3,8.048289E-3,9.496308E-3,-1.7410363E-3,-2.5129354E-2,-1.9892938E-3,-0E0,-2.143774E-2,5.6980783E-3,2.2706639E-2,-5.207372E-3,7.690806E-3,1.7987642E-2,-0E0,-2.1834757E-2,-0E0,2.4697661E-2,1.6623224E-3,-2.9601803E-2,-4.6753874E-3,2.3221964E-2,-0E0,1.3846595E-2,3.006124E-2,-0E0,2.0150855E-2,-0E0,-2.439531E-2,-0E0,2.1908397E-2,-2.3188025E-2,-0E0,1.1245552E-2,-0E0,3.900716E-3,2.1158801E-2,1.6757946E-2,-0E0,-2.0255381E-2,4.051458E-3,1.6416084E-2,-0E0,2.211196E-2,-0E0,4.807567E-3,3.029568E-2,-0E0,2.2519652E-2,-0E0,2.2769526E-2,1.9766212E-2,-0E0,-0E0,-2.8205093E-2,-0E0,1.4286665E-2,-7.634878E-3,3.1445373E-3,2.3597516E-2,-0E0,1.822757E-2,-0E0,8.525465E-3,-1.2943017E-2,-0E0,-3.4781784E-2,-0E0,-1.0907835E-2,-0E0,1.2332882E-2,-3.5794314E-2,-0E0,-3.1023424E-2,-0E0],"categories":[],"categories_nodes":[],"categories_segments":[],"categories_sizes":[],"default_left":[0,0,0,0,0,0,0,0,0,0,0,0,0,0,0,0,0,0,0,0,0,0,0,0,0,0,0,0,0,0,0,0,0,0,0,0,0,0,0,0,0,0,0,0,0,0,0,0,0,0,0,0,0,0,0,0,0,0,0,0,0,0,0,0,0,0,0,0,0,0,0,0,0,0,0,0,0,0,0,0,0,0,0,0,0,0,0,0,0,0,0,0,0,0,0,0,0,0,0,0,0,0,0,0,0,0,0,0,0,0,0,0,0,0,0,0,0,0,0,0,0,0,0,0,0,0,0,0,0,0,0,0,0,0,0,0,0,0,0,0,0,0,0,0,0,0,0,0,0,0,0,0,0,0,0,0,0,0,0,0,0,0,0,0,0,0,0,0,0,0,0,0,0,0,0,0,0,0,0,0,0,0,0,0,0,0,0,0,0,0,0,0,0,0,0,0,0,0,0,0,0,0,0,0,0,0,0,0,0,0,0,0,0,0,0,0,0,0,0,0,0,0,0,0,0,0,0,0,0,0,0,0,0,0,0,0,0,0,0,0,0,0,0,0,0,0,0,0,0,0,0,0,0,0,0,0,0,0,0,0,0,0,0,0,0,0,0,0,0,0,0,0,0,0,0,0,0,0,0,0,0,0,0,0,0,0,0,0,0,0,0,0,0,0,0,0,0,0,0,0,0,0,0,0,0,0,0,0,0,0,0,0,0,0,0,0,0,0,0,0,0,0,0,0,0,0,0,0,0,0,0,0,0,0,0,0,0,0,0,0,0,0,0,0,0,0,0,0,0,0,0,0,0,0,0,0,0,0,0,0,0,0,0,0,0,0,0,0,0,0,0,0,0,0,0,0,0,0,0,0,0,0,0,0,0,0,0,0,0,0,0,0,0,0,0,0,0,0,0,0,0,0,0,0,0,0,0,0,0,0,0,0,0,0,0,0,0,0,0,0,0,0,0,0,0,0,0,0,0],"id":3,"left_children":[1,3,5,7,9,11,13,15,17,19,21,23,25,27,29,-1,31,33,35,37,39,41,43,45,47,49,51,53,55,57,59,-1,-1,61,63,65,67,-1,-1,69,71,73,75,-1,-1,77,79,81,83,85,87,89,91,93,95,97,99,101,103,-1,105,107,109,111,113,115,-1,-1,-1,117,119,121,123,125,127,129,-1,131,133,135,-1,-1,-1,137,139,141,143,145,-1,147,149,151,153,155,157,159,161,-1,163,-1,165,167,169,-1,171,173,-1,-1,175,177,-1,179,181,183,-1,185,-1,187,189,191,193,195,-1,-1,197,-1,199,-1,-1,201,-1,-1,203,205,-1,207,-1,209,211,-1,-1,213,215,217,219,221,-1,-1,223,225,227,229,231,233,235,-1,237,239,241,-1,243,245,247,-1,-1,-1,249,251,253,255,-1,257,-1,-1,-1,-1,-1,-1,-1,-1,259,-1,-1,-1,-1,-1,-1,261,263,-1,265,267,269,271,-1,-1,-1,-1,-1,-1,273,275,-1,-1,277,279,-1,-1,-1,281,283,-1,285,287,-1,289,291,293,295,297,-1,-1,-1,299,-1,301,303,305,307,309,311,-1,313,315,317,319,321,323,325,327,329,331,333,-1,-1,335,-1,-1,-1,-1,-1,337,-1,339,341,343,-1,-1,-1,-1,345,347,-1,349,-1,351,-1,353,-1,-1,-1,355,357,-1,-1,-1,-1,-1,-1,359,-1,361,-1,363,365,-1,-1,-1,367,-1,-1,-1,369,371,-1,373,-1,-1,-1,375,377,379,381,-1,383,385,-1,-1,-1,-1,-1,387,389,391,393,395,397,399,401,403,-1,-1,405,407,-1,409,411,413,-1,415,-1,-1,-1,417,-1,-1,-1,419,-1,421,423,-1,425,427,-1,-1,-1,-1,-1,-1,-1,-1,-1,-1,-1,-1,-1,-1,-1,-1,-1,-1,-1,-1,-1,-1,-1,-1,-1,-1,-1,-1,-1,-1,-1,-1,-1,-1,-1,-1,-1,-1,-1,-1,-1,-1,-1,-1,-1,-1,-1,-1,-1,-1,-1,-1,-1,-1,-1,-1,-1,-1,-1,-1,-1,-1,-1,-1,-1,-1,-1,-1,-1,-1,-1,-1,-1,-1,-1,-1,-1,-1,-1,-1,-1,-1,-1,-1,-1],"loss_changes":[1.1289451E3,5.147183E2,5.401354E2,3.210183E2,1.0269138E2,4.456808E2,1.1766568E2,7.4020355E1,1.1796521E2,4.7184147E1,1.5458191E1,1.0699661E2,1.362008E2,2.021531E1,2.22547E1,0E0,1.9268677E1,1.1676514E2,5.11963E1,2.6033134E0,2.4402704E1,5.5221405E0,3.984427E0,3.0900955E1,2.487254E1,1.2254699E1,1.0091077E2,3.9472282E1,8.902592E0,4.16372E1,7.2119446E0,0E0,0E0,1.9043638E1,1.2023657E2,6.856182E0,8.451061E0,0E0,0E0,1.9052057E1,1.1635984E1,1.9095184E1,4.184719E0,0E0,0E0,3.4228348E1,9.351204E0,2.925209E0,1.2330369E1,1.7777864E1,1.2737635E1,1.2155869E1,4.1939697E1,2.1949993E1,4.624674E0,5.484803E0,3.7802048E0,1.6884048E1,2.914295E0,0E0,4.0472565E0,8.446598E0,1.2484554E1,7.702539E1,1.4148285E1,6.371792E0,0E0,0E0,0E0,1.2031411E1,9.540905E0,8.408373E0,1.8890219E1,1.1786423E1,4.10833E0,4.9549227E0,0E0,5.0641937E0,2.3960953E0,4.0586224E0,0E0,0E0,0E0,6.443518E0,1.5573933E1,7.7572546E0,3.109226E1,5.6441765E0,0E0,7.489208E0,1.8925552E1,1.3968369E1,1.5269287E1,1.1204133E1,1.2506344E1,9.743265E0,3.6764917E0,0E0,3.0802345E0,0E0,2.7614136E0,4.350756E1,6.4306793E0,0E0,3.1644635E0,2.3406067E0,0E0,0E0,4.7037888E0,2.359293E0,0E0,4.153833E1,4.164139E0,5.782181E0,0E0,3.1296043E0,0E0,6.459114E0,1.1474046E1,4.011757E0,6.364742E0,4.0480995E0,0E0,0E0,3.9838371E0,0E0,4.8861847E0,0E0,0E0,3.9955845E0,0E0,0E0,5.308304E0,6.882662E0,0E0,2.9869375E0,0E0,6.0324707E0,1.0903101E1,0E0,0E0,2.4352717E0,8.457807E0,1.3039747E1,5.440773E0,2.728468E0,0E0,0E0,1.5881866E1,9.18614E0,1.2329116E1,1.4360886E1,3.223318E0,8.87915E0,1.40655365E1,0E0,1.0255841E1,5.7453003E0,5.7107882E0,0E0,2.6017418E0,3.0539894E0,3.1761265E0,0E0,0E0,0E0,2.6693516E0,1.886184E1,1.156305E1,4.253784E0,0E0,3.6626291E0,0E0,0E0,0E0,0E0,0E0,0E0,0E0,0E0,1.3264038E1,0E0,0E0,0E0,0E0,0E0,0E0,3.166216E0,4.8647165E0,0E0,3.2131462E0,5.3497066E0,2.9871545E0,7.541874E0,0E0,0E0,0E0,0E0,0E0,0E0,3.0041656E0,3.4204502E0,0E0,0E0,2.7155457E0,3.173212E0,0E0,0E0,0E0,2.8916168E0,2.2600842E0,0E0,2.827896E0,2.6986423E0,0E0,2.9027362E0,1.4552269E1,2.463377E0,7.6476593E0,3.7354927E0,0E0,0E0,0E0,3.6527557E0,0E0,2.4054606E0,1.5925282E1,8.199307E0,8.059847E0,3.5953364E0,7.769104E0,0E0,4.6580124E0,4.6264496E0,5.833008E0,3.5752869E0,9.491736E0,1.925076E1,8.581075E0,3.3840027E0,6.77903E0,2.2526255E0,9.004332E0,0E0,0E0,3.0543528E0,0E0,0E0,0E0,0E0,0E0,4.500534E0,0E0,4.0924997E0,7.057481E0,3.4350128E0,0E0,0E0,0E0,0E0,1.5574219E1,2.4158392E0,0E0,2.23285E0,0E0,3.8813896E0,0E0,3.0250816E0,0E0,0E0,0E0,2.8068163E0,5.715309E0,0E0,0E0,0E0,0E0,0E0,0E0,5.280512E0,0E0,3.0917723E0,0E0,6.10598E0,3.520925E0,0E0,0E0,0E0,3.1363015E0,0E0,0E0,0E0,4.208376E0,3.297906E0,0E0,6.1785097E0,0E0,0E0,0E0,1.5296805E1,3.5519943E0,2.475543E0,2.9825878E0,0E0,4.4401054E0,5.0309315E0,0E0,0E0,0E0,0E0,0E0,2.572219E0,7.9271545E0,2.369608E0,3.496362E0,2.6198626E0,5.782364E0,2.337854E1,8.536728E0,2.7062912E0,0E0,0E0,6.1387854E0,4.974739E0,0E0,4.2713385E0,2.3043995E0,3.0169868E0,0E0,3.6852694E0,0E0,0E0,0E0,5.8771653E0,0E0,0E0,0E0,3.1832352E0,0E0,2.6504545E0,3.7027013E0,0E0,4.7816334E0,5.2541046E0,0E0,0E0,0E0,0E0,0E0,0E0,0E0,0E0,0E0,0E0,0E0,0E0,0E0,0E0,0E0,0E0,0E0,0E0,0E0,0E0,0E0,0E0,0E0,0E0,0E0,0E0,0E0,0E0,0E0,0E0,0E0,0E0,0E0,0E0,0E0,0E0,0E0,0E0,0E0,0E0,0E0,0E0,0E0,0E0,0E0,0E0,0E0,0E0,0E0,0E0,0E0,0E0,0E0,0E0,0E0,0E0,0E0,0E0,0E0,0E0,0E0,0E0,0E0,0E0,0E0,0E0,0E0,0E0,0E0,0E0,0E0,0E0,0E0,0E0,0E0,0E0,0E0,0E0,0E0,0E0,0E0,0E0,0E0,0E0,0E0],"parents":[2147483647,0,0,1,1,2,2,3,3,4,4,5,5,6,6,7,7,8,8,9,9,10,10,11,11,12,12,13,13,14,14,16,16,17,17,18,18,19,19,20,20,21,21,22,22,23,23,24,24,25,25,26,26,27,27,28,28,29,29,30,30,33,33,34,34,35,35,36,36,39,39,40,40,41,41,42,42,45,45,46,46,47,47,48,48,49,49,50,50,51,51,52,52,53,53,54,54,55,55,56,56,57,57,58,58,60,60,61,61,62,62,63,63,64,64,65,65,69,69,70,70,71,71,72,72,73,73,74,74,75,75,77,77,78,78,79,79,83,83,84,84,85,85,86,86,87,87,89,89,90,90,91,91,92,92,93,93,94,94,95,95,96,96,98,98,100,100,101,101,102,102,104,104,105,105,108,108,109,109,111,111,112,112,113,113,115,115,117,117,118,118,119,119,120,120,121,121,124,124,126,126,129,129,132,132,133,133,135,135,137,137,138,138,141,141,142,142,143,143,144,144,145,145,148,148,149,149,150,150,151,151,152,152,153,153,154,154,156,156,157,157,158,158,160,160,161,161,162,162,166,166,167,167,168,168,169,169,171,171,180,180,187,187,188,188,190,190,191,191,192,192,193,193,200,200,201,201,204,204,205,205,209,209,210,210,212,212,213,213,215,215,216,216,217,217,218,218,219,219,223,223,225,225,226,226,227,227,228,228,229,229,230,230,232,232,233,233,234,234,235,235,236,236,237,237,238,238,239,239,240,240,241,241,242,242,245,245,251,251,253,253,254,254,255,255,260,260,261,261,263,263,265,265,267,267,271,271,272,272,279,279,281,281,283,283,284,284,288,288,292,292,293,293,295,295,299,299,300,300,301,301,302,302,304,304,305,305,311,311,312,312,313,313,314,314,315,315,316,316,317,317,318,318,319,319,322,322,323,323,325,325,326,326,327,327,329,329,333,333,337,337,339,339,340,340,342,342,343,343],"right_children":[2,4,6,8,10,12,14,16,18,20,22,24,26,28,30,-1,32,34,36,38,40,42,44,46,48,50,52,54,56,58,60,-1,-1,62,64,66,68,-1,-1,70,72,74,76,-1,-1,78,80,82,84,86,88,90,92,94,96,98,100,102,104,-1,106,108,110,112,114,116,-1,-1,-1,118,120,122,124,126,128,130,-1,132,134,136,-1,-1,-1,138,140,142,144,146,-1,148,150,152,154,156,158,160,162,-1,164,-1,166,168,170,-1,172,174,-1,-1,176,178,-1,180,182,184,-1,186,-1,188,190,192,194,196,-1,-1,198,-1,200,-1,-1,202,-1,-1,204,206,-1,208,-1,210,212,-1,-1,214,216,218,220,222,-1,-1,224,226,228,230,232,234,236,-1,238,240,242,-1,244,246,248,-1,-1,-1,250,252,254,256,-1,258,-1,-1,-1,-1,-1,-1,-1,-1,260,-1,-1,-1,-1,-1,-1,262,264,-1,266,268,270,272,-1,-1,-1,-1,-1,-1,274,276,-1,-1,278,280,-1,-1,-1,282,284,-1,286,288,-1,290,292,294,296,298,-1,-1,-1,300,-1,302,304,306,308,310,312,-1,314,316,318,320,322,324,326,328,330,332,334,-1,-1,336,-1,-1,-1,-1,-1,338,-1,340,342,344,-1,-1,-1,-1,346,348,-1,350,-1,352,-1,354,-1,-1,-1,356,358,-1,-1,-1,-1,-1,-1,360,-1,362,-1,364,366,-1,-1,-1,368,-1,-1,-1,370,372,-1,374,-1,-1,-1,376,378,380,382,-1,384,386,-1,-1,-1,-1,-1,388,390,392,394,396,398,400,402,404,-1,-1,406,408,-1,410,412,414,-1,416,-1,-1,-1,418,-1,-1,-1,420,-1,422,424,-1,426,428,-1,-1,-1,-1,-1,-1,-1,-1,-1,-1,-1,-1,-1,-1,-1,-1,-1,-1,-1,-1,-1,-1,-1,-1,-1,-1,-1,-1,-1,-1,-1,-1,-1,-1,-1,-1,-1,-1,-1,-1,-1,-1,-1,-1,-1,-1,-1,-1,-1,-1,-1,-1,-1,-1,-1,-1,-1,-1,-1,-1,-1,-1,-1,-1,-1,-1,-1,-1,-1,-1,-1,-1,-1,-1,-1,-1,-1,-1,-1,-1,-1,-1,-1,-1,-1],"split_conditions":[1.7426273E-1,3.271605E-1,2.962963E-1,1.8994413E-1,2.6041666E-1,1.660079E-1,4.1001564E-1,3.5135135E-1,4.7706422E-1,1.3921113E-1,4.090909E-1,3.4468085E-1,2.1782178E-1,3.2330826E-1,5.9636366E-1,-4.607187E-2,1.14E2,2.4117647E-1,1.08E2,1.18E2,3.7442923E-1,3.4754097E-1,3.0810812E-1,4.5454547E-1,1.2376238E-1,6.109937E-1,2.3295455E-1,3.1896552E-1,2.345679E-1,5.75419E-1,1.28E2,7.2119E-2,-0E0,4.7875354E-1,3.0039525E-1,2.69E2,1.6838488E-1,-0E0,-1.6468262E-2,3.5897437E-1,8.4E1,3.1308413E-1,3.5064936E-1,-0E0,-1.4983118E-2,3.2E-1,1.07E2,3.3827892E-1,3.671875E-1,5.8E1,6.8E1,2.82E2,3.9862543E-1,7.9E1,2.1052632E-1,3.5135135E-1,3.3E1,2.962963E-1,2.714536E-1,-0E0,3.8693467E-1,2.15E2,2.62E2,1.0096433E0,3.73E2,2.4747474E-1,-0E0,-3.9944153E-2,-0E0,3.5135135E-1,2.8703704E-1,2.75E2,2.91E2,3.4266135E-1,1.732852E-1,1.7114094E-1,-0E0,7.7844314E-2,3.18E2,1.4551084E-1,-1.0005853E-3,-2.2615263E-2,-0E0,3.6764705E-1,2.54E2,2.3076923E-1,2.3529412E-1,2.1515892E-1,1.9728644E-3,2.3950617E-1,2.9903537E-1,3.401015E-1,3.1578946E-1,1.9796954E-1,2.876344E-1,2.53E2,1.9021739E-1,-0E0,2.8E2,-0E0,4.219858E-1,2.3202614E-1,5.197368E-1,-0E0,6.813187E-1,7.7844314E-2,-0E0,-0E0,4.4642857E-1,1.7343174E-1,-0E0,1E0,3.3492824E-1,2.2697368E-1,-4.2813886E-2,4.008529E-1,-0E0,3.1428573E-1,2.75E2,1.8003488E-1,2.0637946E-1,1.277027E-1,-1.8352272E-2,3.223327E-4,4.7875354E-1,-1.6510919E-2,1.5057915E-1,-2.0954316E-2,-0E0,5.158209E-1,-0E0,-0E0,2.4242425E-1,3.7037036E-1,-2.2899747E-2,7.7844314E-2,-0E0,5E1,4.21E2,4.2253206E-3,-2.1638788E-2,3.114035E-1,1.64E2,3.01E2,2.1666667E-1,5.5E1,-0E0,-0E0,2.6216486E-1,2.2709164E-1,2.3076923E-1,2.462006E-1,3.21E2,2.0967741E-1,1.5776241E-1,-1.5651124E-2,2.2276029E-1,2.7542374E-1,2.1081081E-1,-0E0,2.0666666E-1,2.2769953E-1,1.984127E-1,-0E0,-2.1392442E-2,-0E0,2.9268292E-1,2.7986348E-1,2.6973686E-1,2.36E2,-0E0,3.86E2,-0E0,-0E0,-3.121728E-2,-0E0,-3.8248174E-2,3.3839744E-2,-0E0,3.1179978E-2,2.4590164E-1,-0E0,5.503863E-2,-0E0,-2.6991518E-2,4.9859546E-2,-0E0,3.581081E-1,2.55E2,2.0610119E-4,2.3167421E-1,3.4754097E-1,2.1588399E-1,2.18E2,-4.3210476E-3,1.6078794E-2,-0E0,-2.9658213E-2,-0E0,-0E0,3.4545454E-1,2.46E2,-0E0,-0E0,4.4642857E-1,4.2307693E-1,-0E0,-0E0,4.287838E-2,6.751773E-2,4.23E2,-0E0,2.1428572E-1,3.9267015E-1,-0E0,1.9631901E-1,1.2207792E-1,2.2883295E-1,2.845953E-1,2.7864292E-1,-0E0,-4.0217996E-2,-0E0,4.9E1,-5.174768E-3,2.2883295E-1,7.8E1,2.0326678E-1,4.8221344E-1,2.29E2,2.55E2,-0E0,4.58E2,2.45E-1,2.4864864E-1,5.17E2,7.9E1,2.6973686E-1,2.8169015E-1,3.2333332E-1,4.692082E-1,2.96E2,2.8712872E-1,-0E0,-4.074105E-2,2.3950617E-1,-0E0,5.2331924E-3,-6.4114295E-3,-4.1259468E-2,-0E0,2.08E2,-0E0,2.0422535E-1,2.6347306E-1,4.33526E-1,-0E0,1.9015457E-2,-0E0,-0E0,2.5874126E-1,5.52E2,-0E0,3.3663365E-1,1.7897921E-3,2.0062695E-1,-0E0,1.61E2,-0E0,-5.443122E-3,1.2781924E-2,3.8626608E-1,3.7755102E-1,-6.4248905E-2,-0E0,-3.1333536E-2,-0E0,-4.803004E-2,-0E0,2.63E2,-0E0,2.7986348E-1,-0E0,1.48E2,1.5467626E-1,-0E0,-3.3237547E-2,-0E0,5.6E1,-0E0,1.944297E-2,3.169548E-4,3.14578E-1,2.36E2,-0E0,1.9459459E-1,1.2514121E-3,2.0295473E-2,-0E0,1.83E2,2.3666666E-1,1.26E2,2.5738397E-1,-0E0,2.254902E-1,2.7403846E-1,-8.344817E-4,1.9260876E-2,-4.561057E-4,1.7050644E-2,-3.7133987E-3,1.3218391E-1,1.7010309E-1,3.7387386E-1,1.43E2,3.040201E-1,2.74673E-1,1.95E2,1.7064847E-1,1.47E2,-0E0,-4.0067276E-3,4.19E2,2.5255972E-1,8.185755E-3,2.1311475E-1,3.7012988E-1,3.85E-1,-0E0,3.5714287E-1,-4.0976615E-3,-0E0,1.347284E-2,2.5E-1,-3.976096E-2,-0E0,-2.3479154E-2,2.244898E-1,-0E0,2.9245284E-1,8.7E1,-0E0,2.2865854E-1,2.3717949E-1,-0E0,-7.0820665E-3,-6.1013576E-2,2.252715E-2,-0E0,-1.643486E-2,-0E0,-2.096267E-2,-0E0,2.5203869E-2,-0E0,-7.636009E-3,8.048289E-3,9.496308E-3,-1.7410363E-3,-2.5129354E-2,-1.9892938E-3,-0E0,-2.143774E-2,5.6980783E-3,2.2706639E-2,-5.207372E-3,7.690806E-3,1.7987642E-2,-0E0,-2.1834757E-2,-0E0,2.4697661E-2,1.6623224E-3,-2.9601803E-2,-4.6753874E-3,2.3221964E-2,-0E0,1.3846595E-2,3.006124E-2,-0E0,2.0150855E-2,-0E0,-2.439531E-2,-0E0,2.1908397E-2,-2.3188025E-2,-0E0,1.1245552E-2,-0E0,3.900716E-3,2.1158801E-2,1.6757946E-2,-0E0,-2.0255381E-2,4.051458E-3,1.6416084E-2,-0E0,2.211196E-2,-0E0,4.807567E-3,3.029568E-2,-0E0,2.2519652E-2,-0E0,2.2769526E-2,1.9766212E-2,-0E0,-0E0,-2.8205093E-2,-0E0,1.4286665E-2,-7.634878E-3,3.1445373E-3,2.3597516E-2,-0E0,1.822757E-2,-0E0,8.525465E-3,-1.2943017E-2,-0E0,-3.4781784E-2,-0E0,-1.0907835E-2,-0E0,1.2332882E-2,-3.5794314E-2,-0E0,-3.1023424E-2,-0E0],"split_indices":[7,4,1,4,1,9,1,6,6,7,4,4,6,6,1,0,5,6,5,0,8,8,9,8,9,4,8,8,9,4,0,0,0,8,4,0,9,0,0,4,5,6,4,0,0,4,5,6,6,5,5,0,4,5,6,6,5,8,9,0,8,0,0,1,0,8,0,0,0,6,6,0,0,1,7,7,0,9,0,9,0,0,0,8,0,7,9,8,0,6,6,6,8,6,6,0,7,0,0,0,4,8,4,0,4,9,0,0,8,9,0,3,6,8,0,1,0,8,0,1,1,1,0,0,8,0,7,0,0,1,0,0,8,6,0,9,0,5,0,0,0,9,0,0,6,5,0,0,1,7,7,6,0,7,1,0,8,8,9,0,7,9,7,0,0,0,9,7,7,5,0,0,0,0,0,0,0,0,0,0,8,0,0,0,0,0,0,4,0,0,1,8,1,0,0,0,0,0,0,0,8,5,0,0,8,8,0,0,0,1,0,0,6,4,0,6,1,1,7,1,0,0,0,5,0,1,5,8,4,0,0,0,0,8,7,0,5,7,8,7,4,0,8,0,0,6,0,0,0,0,0,5,0,7,8,8,0,0,0,0,6,0,0,6,0,9,0,5,0,0,0,6,6,0,0,0,0,0,0,0,0,6,0,5,9,0,0,0,5,0,0,0,7,0,0,6,0,0,0,0,7,5,6,0,6,9,0,0,0,0,0,1,9,6,5,6,1,0,9,0,0,0,0,9,0,6,1,1,0,1,0,0,0,9,0,0,0,6,0,6,5,0,6,9,0,0,0,0,0,0,0,0,0,0,0,0,0,0,0,0,0,0,0,0,0,0,0,0,0,0,0,0,0,0,0,0,0,0,0,0,0,0,0,0,0,0,0,0,0,0,0,0,0,0,0,0,0,0,0,0,0,0,0,0,0,0,0,0,0,0,0,0,0,0,0,0,0,0,0,0,0,0,0,0,0,0,0,0,0],"split_type":[0,0,0,0,0,0,0,0,0,0,0,0,0,0,0,0,0,0,0,0,0,0,0,0,0,0,0,0,0,0,0,0,0,0,0,0,0,0,0,0,0,0,0,0,0,0,0,0,0,0,0,0,0,0,0,0,0,0,0,0,0,0,0,0,0,0,0,0,0,0,0,0,0,0,0,0,0,0,0,0,0,0,0,0,0,0,0,0,0,0,0,0,0,0,0,0,0,0,0,0,0,0,0,0,0,0,0,0,0,0,0,0,0,0,0,0,0,0,0,0,0,0,0,0,0,0,0,0,0,0,0,0,0,0,0,0,0,0,0,0,0,0,0,0,0,0,0,0,0,0,0,0,0,0,0,0,0,0,0,0,0,0,0,0,0,0,0,0,0,0,0,0,0,0,0,0,0,0,0,0,0,0,0,0,0,0,0,0,0,0,0,0,0,0,0,0,0,0,0,0,0,0,0,0,0,0,0,0,0,0,0,0,0,0,0,0,0,0,0,0,0,0,0,0,0,0,0,0,0,0,0,0,0,0,0,0,0,0,0,0,0,0,0,0,0,0,0,0,0,0,0,0,0,0,0,0,0,0,0,0,0,0,0,0,0,0,0,0,0,0,0,0,0,0,0,0,0,0,0,0,0,0,0,0,0,0,0,0,0,0,0,0,0,0,0,0,0,0,0,0,0,0,0,0,0,0,0,0,0,0,0,0,0,0,0,0,0,0,0,0,0,0,0,0,0,0,0,0,0,0,0,0,0,0,0,0,0,0,0,0,0,0,0,0,0,0,0,0,0,0,0,0,0,0,0,0,0,0,0,0,0,0,0,0,0,0,0,0,0,0,0,0,0,0,0,0,0,0,0,0,0,0,0,0,0,0,0,0,0,0,0,0,0,0,0,0,0,0,0,0,0,0,0,0,0,0,0,0,0,0,0,0,0,0,0,0,0,0,0,0,0,0,0,0,0,0,0,0,0],"sum_hessian":[2.5538766E4,6.9007295E3,1.8638037E4,2.7338933E3,4.166836E3,1.4247215E4,4.3908223E3,1.1396259E2,2.619931E3,3.187326E3,9.7951025E2,2.6436057E3,1.1603609E4,2.4257932E3,1.9650288E3,1.3927451E1,1.0003514E2,2.490882E3,1.2904868E2,5.3497034E2,2.6523555E3,7.785937E2,2.0091656E2,8.729331E2,1.7706725E3,1.648224E3,9.955385E3,2.0436437E3,3.8214963E2,1.4466495E3,5.183793E2,9.203522E1,7.999921E0,1.6091458E2,2.3299675E3,7.824176E1,5.080691E1,3.7485495E0,5.312218E2,2.273037E3,3.793184E2,6.01916E2,1.7667764E2,1.264509E2,7.446566E1,8.2073346E2,5.2199623E1,1.5386765E2,1.6168048E3,1.507054E3,1.4117006E2,2.1256792E3,7.8297056E3,1.5561993E3,4.8744434E2,3.195571E2,6.259255E1,1.2621907E3,1.8445886E2,7.9986234E0,5.1038065E2,6.6891E1,9.402358E1,1.228461E3,1.1015065E3,6.776377E1,1.0477992E1,4.2561073E1,8.245835E0,8.344539E2,1.4385831E3,1.5870454E2,2.2061383E2,1.788009E2,4.2311514E2,9.069829E1,8.5979355E1,2.2657428E2,5.941592E2,3.1457994E1,2.0741629E1,1.3961842E2,1.4249228E1,1.4078802E3,2.0892458E2,5.482688E2,9.587852E2,9.1428055E1,4.974201E1,8.8007275E2,1.2456064E3,2.1100188E3,5.719687E3,7.0993066E2,8.462687E2,1.1142278E2,3.7602158E2,1.6290399E2,1.5665309E2,3.7487032E0,5.8843845E1,7.7641284E2,4.8577792E2,3.8993946E1,1.4546492E2,4.9214307E2,1.8237585E1,1.3744501E1,5.3146496E1,5.9059853E1,3.496373E1,1.2140038E3,1.445732E1,7.6193195E2,3.3957452E2,6.1579506E1,6.1842647E0,4.8612216E2,3.483318E2,3.2715393E2,1.1114292E3,1.10732765E2,4.7971783E1,5.773509E1,1.6287875E2,6.690465E1,1.1189626E2,4.0912296E2,1.3992195E1,8.095102E1,9.74727E0,5.7030263E0,2.2087125E2,3.0453394E2,2.8962524E2,2.8459093E1,2.9989018E0,1.1636649E3,2.4421541E2,7.973889E1,1.2918568E2,1.24205894E2,4.2406287E2,5.1533356E2,4.4345163E2,7.26809E1,1.8747154E1,7.820934E1,8.018634E2,6.4319763E2,6.024088E2,1.7063855E3,4.0363336E2,4.8739414E3,8.457454E2,1.306719E2,5.792588E2,5.8538745E2,2.6088116E2,3.947284E1,7.194994E1,9.9892784E1,2.7612878E2,6.996578E1,8.668732E1,3.7495272E0,5.509432E1,3.061022E2,4.703106E2,4.7329715E2,1.2480766E1,1.2421871E2,2.1246208E1,2.9993043E0,4.8914377E2,1.0735321E1,4.2411175E1,5.4811634E1,4.2482195E0,7.2383356E0,1.2067654E3,1.2485712E0,1.3208749E1,2.7473064E1,7.344589E2,5.5848976E1,5.7305293E0,7.4489655E1,4.116325E2,1.0745691E2,2.4087488E2,2.4791742E2,7.923653E1,9.519608E2,1.5946844E2,6.5738754E1,4.499401E1,1.5913004E2,3.7487197E0,1.5739289E1,9.6156975E1,7.270732E1,8.243692E0,1.19840975E1,2.0888716E2,2.3032634E2,7.42076E1,1.9957578E0,2.6463335E1,1.5446432E2,1.00920056E3,2.0298047E2,4.123493E1,1.0096425E2,2.3241648E1,5.6725964E1,3.673369E2,1.9143097E2,3.2390262E2,4.297142E2,1.3737445E1,4.7691006E1,2.4989891E1,7.3063226E2,7.123116E1,1.3690506E2,5.062926E2,4.5899182E2,1.4341702E2,1.4171465E2,1.5646709E3,1.9319582E2,2.1043755E2,1.5511603E3,3.3227812E3,5.125105E2,3.332349E2,1.7040076E2,4.0885803E2,3.5625644E2,2.2913104E2,1.0646666E2,1.5441452E2,1.37460785E1,5.820386E1,9.389522E1,5.9975667E0,5.047825E1,2.2565053E2,5.3598602E1,1.4957159E0,2.6611118E2,3.999102E1,3.6540845E2,1.04902176E2,4.6255847E2,1.073867E1,9.347304E1,3.074567E1,1.4718836E1,1.1920466E3,6.824026E1,6.2493987E0,7.7726585E1,3.339059E2,2.1963234E2,2.1242535E1,1.7892581E2,6.89916E1,3.7743267E1,4.1493256E1,1.5146045E2,8.0050037E2,9.3407524E1,2.7494512E0,6.970898E1,2.9983497E0,2.0440282E2,4.484345E0,2.1333043E2,1.6995907E1,5.8486546E1,9.597778E1,7.965159E2,2.1268462E2,6.2480836E0,3.4986847E1,1.2998078E1,8.796617E1,2.9241573E1,2.748439E1,1.26929565E2,2.4040735E2,1.4993965E2,4.1491318E1,2.2468507E2,9.9217545E1,4.0122195E2,2.849224E1,2.8737225E2,4.4326E2,1.0742289E2,2.948217E1,1.7667015E2,3.2962244E2,1.3992761E2,3.190642E2,9.66792E1,4.6737816E1,2.699191E1,1.1472273E2,2.717907E2,1.2928801E3,1.5195436E2,5.848318E1,1.8054811E2,1.3706122E3,2.2277349E3,1.0950464E3,4.8056815E2,3.1942354E1,1.2042911E2,2.128058E2,1.0315714E2,6.7243614E1,2.5965494E2,1.4920306E2,3.1951614E2,3.6740295E1,1.564097E2,7.272134E1,1.5495216E1,9.097144E1,1.3692845E2,1.748606E1,8.746615E0,8.5148605E1,2.6087015E2,5.241038E0,1.0870713E2,2.5670132E2,4.5467373E1,5.9434803E1,4.5431656E2,8.241916E0,3.2864353E1,1.1591823E3,6.599034E1,2.2499173E0,6.623248E1,1.14941E1,2.0064098E2,1.8991371E1,1.6867908E2,1.0246734E1,1.3446419E2,1.6996262E1,7.2501807E2,7.54823E1,1.2263702E2,9.069341E1,2.199437E1,3.6492176E1,7.0705054E2,8.9465385E1,9.749091E1,1.151937E2,8.196869E1,5.9974775E0,1.9841997E2,4.198738E1,5.3225136E1,9.671452E1,5.748667E1,1.671984E2,1.1869892E2,1.6867332E2,2.8538004E2,1.5787999E2,9.119013E1,1.6232758E1,6.497666E0,2.2984505E1,2.322943E1,3.06393E2,1.05941986E2,3.3985615E1,1.5784981E2,1.1394091E2,1.4290483E2,1.1499753E3,1.1970611E2,3.224826E1,2.0494661E1,3.7988518E1,6.590849E1,1.1463962E2,1.3091597E3,6.1452435E1,1.4430447E2,2.0834304E3,4.418958E1,1.0508568E3,7.491144E0,4.7307703E2,1.2589526E2,8.691054E1,9.490247E0,9.366689E1,2.4741663E1,2.3491328E2,1.0846639E2,4.0736675E1,2.6779898E2,5.171715E1,9.943034E1,5.6979362E1,7.6485916E1,6.0442535E1,3.9984295E0,2.568717E2,2.7741282E1,8.096585E1,1.2871846E2,1.2798285E2,4.8685513E1,1.074929E1,4.201152E2,3.420135E1],"tree_param":{"num_deleted":"0","num_feature":"10","num_nodes":"429","size_leaf_vector":"1"}},{"base_weights":[-5.694163E-3,-5.6314427E-1,1.0322429E-1,9.2360175E-1,-6.075852E-1,1.9511846E-1,-2.2155894E-1,-6.549445E-1,1.2588665E0,-8.050297E-1,-3.521189E-1,-2.1990608E-2,2.4934705E-1,-1.4510939E-1,-3.5579637E-1,-5.0151847E-2,-0E0,6.927351E-2,-0E0,5.2944116E-2,-8.846334E-1,-2.2605565E-1,-5.380762E-1,-2.3481357E-1,-0E0,4.9370527E-2,2.8752762E-1,-6.1487027E-2,-3.2252747E-1,-1.6123298E-1,-4.0896952E-1,5.3300655E-1,-4.7750634E-1,3.4015127E-2,-9.655179E-1,-2.629687E-1,5.7944406E-2,-7.0664597E-1,-3.5535347E-1,-0E0,-3.5897848E-1,-2.1444224E-1,2.3800049E-2,1.8073606E-1,-1.5813252E-2,9.4585516E-2,3.399631E-1,-2.2350777E-2,-8.0154717E-1,-1.5492406E-1,-6.350114E-1,-2.4702115E-1,3.393312E-2,-7.1205574E-1,-3.0885005E-1,7.759405E-1,-0E0,-0E0,-3.5100482E-2,4.848265E-1,-4.6248585E-1,-9.8426014E-1,7.114644E-1,-0E0,-1.6452229E-2,1.7363288E-2,-5.373332E-3,-0E0,-3.729576E-2,-7.33054E-1,-2.3746705E-1,-0E0,-5.206443E-1,-1.1026898E-1,-3.5311535E-2,5.1666558E-2,-1.284097E-1,2.3645239E-1,-3.7372485E-2,-1.582025E-1,4.1453492E-2,-4.3455516E-3,2.3040543E-1,5.198223E-2,3.542158E-1,-1.3729611E-1,6.625084E-2,-0E0,-8.308058E-1,-2.8068906E-1,-1.932155E-2,-0E0,-8.0924803E-1,-0E0,-3.7026036E-1,1.605294E-2,-0E0,-8.959655E-1,-0E0,-5.1354927E-1,-1.8850094E-1,-0E0,4.299885E-2,4.170421E-1,-9.743509E-3,7.4453825E-1,-0E0,-3.230119E-2,-0E0,-1.1545714E0,-8.161374E-1,-0E0,4.73527E-2,1.4337956E-2,-5.0107166E-2,-0E0,-4.0856596E-2,-4.552621E-1,-9.27066E-2,-0E0,-2.9516831E-2,2.829953E-3,-1.5245318E-1,-9.970187E-2,8.4499136E-2,-0E0,-3.2020938E-1,-0E0,2.9798272E-1,2.516669E-2,-3.8227037E-2,-2.6825252E-1,6.3197047E-4,2.0311145E-1,-1.0474455E-1,1.6390759E-1,-8.500527E-2,6.033946E-2,3.3687094E-1,-2.2295346E-2,1.2560207E-1,2.0862983E-1,4.1048682E-1,-4.133032E-1,-0E0,-2.1327098E-1,2.0384683E-1,-0E0,-4.5337357E-2,-0E0,-3.35852E-1,-4.321101E-1,3.2734964E-2,-1.0000403E0,-4.521555E-1,-0E0,-5.646622E-1,-0E0,-9.3936497E-1,-5.800553E-1,-0E0,-2.1963981E-1,-0E0,3.1398088E-2,-0E0,8.88377E-1,-0E0,-0E0,-1.1972785E0,-4.2913698E-2,-0E0,3.2511316E-3,-3.539631E-1,-2.8100347E-2,-0E0,-1.7236E-2,-0E0,-1.0167765E-2,-0E0,-0E0,-1.7897027E-2,-1.6598161E-3,1.1981772E-1,4.3744618E-1,-4.1782553E-3,-0E0,-3.7128225E-1,3.541461E-1,-0E0,1.0765287E-2,-1.1657496E-3,-0E0,-3.0668423E-1,-0E0,2.5963584E-1,-3.7921008E-1,-4.5616217E-2,-1.5828339E-3,2.4246122E-1,9.776604E-3,-2.37271E-1,2.0486985E-1,-9.686379E-2,-3.978013E-3,3.667468E-1,1.8836524E-4,-2.3102035E-1,9.149219E-3,-0E0,2.779743E-1,5.111998E-2,3.7234005E-1,5.178746E-1,-0E0,-5.425114E-1,9.655115E-2,-2.857544E-1,-4.8541853E-1,7.626392E-2,3.5411105E-1,2.5643045E-2,-3.753419E-1,-0E0,-0E0,-4.8715052E-1,1.8423991E-1,-9.791117E-2,-0E0,-5.400526E-2,-4.8767278E-1,-0E0,-3.3801094E-2,-0E0,-0E0,-9.678258E-1,-0E0,-6.501009E-1,-0E0,-3.277755E-1,4.8208844E-2,-0E0,3.698037E-2,-2.566724E-2,-1.2036153E0,-0E0,-2.5368141E-2,-0E0,9.85955E-3,-2.3268852E-1,1.4657252E-1,-0E0,-0E0,2.6915113E-2,-3.9732757E-1,-0E0,-0E0,3.7879854E-1,-0E0,-2.0778207E-2,-0E0,3.0864877E-1,-0E0,-4.865808E-1,-2.7809164E-1,7.0023355E-3,3.8108104E-1,-0E0,1.1367505E-1,-2.0042345E-1,-1.6871084E-2,-0E0,1.4221735E-2,-0E0,7.1855923E-3,-2.1572098E-1,-0E0,2.0606246E-2,-1.753374E-2,-0E0,-0E0,3.1104913E-1,-2.1676471E-2,1.9298184E-1,4.3480983E-1,2.585473E-1,2.7738692E-2,-0E0,-6.199356E-1,-0E0,1.5738785E-1,-0E0,-0E0,-3.4969595E-1,-5.526293E-1,-0E0,-0E0,2.7068734E-2,-0E0,4.3814668E-1,-1.1649934E-1,7.926082E-2,-0E0,-3.9789322E-1,-0E0,-5.719801E-1,-0E0,2.695074E-1,-0E0,-1.4587122E-2,-0E0,-2.6996149E-2,-1.0463949E-3,-1.0671669E0,-0E0,-6.9751275E-1,-1.9474285E-2,7.4460946E-2,-1.994497E-2,-0E0,-6.283184E-2,-0E0,-2.0329183E-2,-0E0,1.3909668E-3,9.403619E-3,-2.223911E-2,-0E0,-0E0,2.0427564E-2,-0E0,1.6898783E-2,-3.135907E-2,-0E0,-0E0,-2.025017E-2,1.172965E-2,-2.64115E-3,-0E0,2.7078694E-2,7.312812E-3,-1.1395658E-2,-0E0,1.2287479E-2,-0E0,-1.7564517E-2,-2.0076886E-2,-0E0,7.7016084E-3,2.0708952E-2,-0E0,-1.3527158E-2,-0E0,1.1815539E-2,2.3182368E-2,9.853928E-4,-0E0,1.4610462E-2,-0E0,-3.5673328E-2,-0E0,1.572735E-2,-2.1664746E-2,-0E0,-0E0,-3.368511E-2,-0E0,2.3540173E-2,-0E0,-1.9610329E-2,7.7471673E-3,-6.799343E-3,-2.3259737E-2,-0E0,-0E0,-3.2434653E-2,-0E0,1.7624479E-2,-0E0,-5.6356464E-2,-0E0,-3.817956E-2,9.704011E-3,-3.968635E-3],"categories":[],"categories_nodes":[],"categories_segments":[],"categories_sizes":[],"default_left":[0,0,0,0,0,0,0,0,0,0,0,0,0,0,0,0,0,0,0,0,0,0,0,0,0,0,0,0,0,0,0,0,0,0,0,0,0,0,0,0,0,0,0,0,0,0,0,0,0,0,0,0,0,0,0,0,0,0,0,0,0,0,0,0,0,0,0,0,0,0,0,0,0,0,0,0,0,0,0,0,0,0,0,0,0,0,0,0,0,0,0,0,0,0,0,0,0,0,0,0,0,0,0,0,0,0,0,0,0,0,0,0,0,0,0,0,0,0,0,0,0,0,0,0,0,0,0,0,0,0,0,0,0,0,0,0,0,0,0,0,0,0,0,0,0,0,0,0,0,0,0,0,0,0,0,0,0,0,0,0,0,0,0,0,0,0,0,0,0,0,0,0,0,0,0,0,0,0,0,0,0,0,0,0,0,0,0,0,0,0,0,0,0,0,0,0,0,0,0,0,0,0,0,0,0,0,0,0,0,0,0,0,0,0,0,0,0,0,0,0,0,0,0,0,0,0,0,0,0,0,0,0,0,0,0,0,0,0,0,0,0,0,0,0,0,0,0,0,0,0,0,0,0,0,0,0,0,0,0,0,0,0,0,0,0,0,0,0,0,0,0,0,0,0,0,0,0,0,0,0,0,0,0,0,0,0,0,0,0,0,0,0,0,0,0,0,0,0,0,0,0,0,0,0,0,0,0,0,0,0,0,0,0,0,0,0,0,0,0,0,0,0,0,0,0,0,0,0,0,0,0,0,0,0,0,0,0,0,0,0,0,0,0,0,0,0,0,0,0,0,0,0,0,0,0,0,0,0,0,0,0,0,0,0,0,0,0,0,0,0,0,0,0,0,0,0,0,0,0,0,0,0,0],"id":4,"left_children":[1,3,5,7,9,11,13,15,17,19,21,23,25,27,29,-1,-1,-1,-1,31,33,35,37,39,41,43,45,47,49,51,53,55,57,59,61,63,65,67,69,-1,71,73,75,77,79,81,83,85,87,89,91,93,95,97,99,101,103,-1,-1,105,107,109,111,113,-1,-1,-1,-1,-1,115,117,-1,119,121,-1,123,125,127,129,131,133,135,137,139,141,143,145,-1,147,149,151,-1,153,-1,155,-1,-1,157,-1,159,161,-1,-1,163,-1,165,-1,-1,-1,167,169,-1,-1,-1,171,-1,-1,173,175,-1,-1,-1,177,179,181,183,185,-1,187,189,-1,191,-1,193,195,197,199,201,203,205,207,209,211,213,215,217,219,-1,-1,-1,221,223,225,227,229,-1,231,-1,233,235,-1,237,-1,-1,-1,239,-1,241,243,-1,-1,-1,245,-1,-1,-1,-1,-1,-1,247,-1,-1,249,251,-1,-1,253,255,-1,-1,-1,-1,257,-1,259,261,263,-1,265,267,269,271,273,-1,275,-1,277,-1,-1,279,281,283,285,-1,287,289,291,293,295,297,299,301,-1,-1,303,305,307,-1,-1,309,-1,-1,-1,-1,311,-1,313,315,317,-1,-1,-1,-1,319,-1,-1,-1,-1,321,323,-1,-1,-1,325,-1,-1,327,-1,-1,-1,329,-1,331,333,335,337,339,341,343,-1,-1,-1,-1,-1,345,-1,-1,-1,-1,-1,347,349,351,353,355,-1,-1,357,-1,359,-1,-1,361,363,-1,-1,-1,-1,365,367,369,-1,371,-1,373,-1,375,-1,-1,-1,-1,-1,377,-1,379,-1,381,-1,-1,-1,-1,-1,-1,-1,-1,-1,-1,-1,-1,-1,-1,-1,-1,-1,-1,-1,-1,-1,-1,-1,-1,-1,-1,-1,-1,-1,-1,-1,-1,-1,-1,-1,-1,-1,-1,-1,-1,-1,-1,-1,-1,-1,-1,-1,-1,-1,-1,-1,-1,-1,-1,-1,-1,-1,-1,-1,-1,-1,-1,-1,-1,-1,-1],"loss_changes":[1.5529023E3,2.7440747E2,6.3653E2,6.7406685E1,1.9556189E2,1.9783514E2,4.401703E1,3.582048E0,1.0242737E1,1.621333E2,3.5764587E1,1.3794327E1,9.921582E1,4.1785324E1,1.2546051E1,0E0,0E0,0E0,0E0,4.7985165E1,1.628717E2,1.3149143E1,1.2708557E1,7.700342E0,1.675583E1,1.9952538E1,1.0955023E2,5.385674E1,4.2697174E1,8.260567E0,3.017302E1,9.824303E0,1.000272E1,3.6718685E1,6.357959E1,1.4530907E1,6.4072776E0,2.9468842E0,8.050747E0,0E0,7.058632E0,9.595424E0,1.08027E1,1.0870016E1,1.2473516E1,3.4364334E1,3.2656433E1,2.0895561E1,2.619152E0,8.31081E0,4.066617E1,6.3564816E0,2.343095E0,3.3382034E1,1.8354652E1,3.5854492E0,4.40618E0,0E0,0E0,1.104496E1,2.718935E0,3.79917E1,4.2792797E0,2.7166557E0,0E0,0E0,0E0,0E0,0E0,